This is INPUT WEIGHT
0.336460928556468
-2.47238152151941
-0.0175547580315625
0.373027264885407
1.2559649967193
-1.7768519510459
1.12886664123488
-0.794705143465985
-1.15049346198215
-0.985990873061124
-0.209031549290543
-0.329533810011915
-0.880535628355857
-0.473818964677491
-1.22604571979282
-0.140253168335125
-1.72638420964954
-0.487457681419537
-1.23852846754499
0.760210282101787
-0.0794715666883249
1.33923209900722
-1.57789238901472
-0.336196899478167
0.0875122822835122
-2.57873884895171
2.02202791825233
-0.395144060677147
1.34305779785191
-0.962957546130648
-0.566385113557186
-0.413064176716576
0.270155523346211
-0.525659361020303
0.43369188990036
-1.68338558480822
1.65799832183772
-0.337373967434549
-2.12046262103118
-1.04228281381272
-0.22793166491515
-0.345963940719025
1.12325298266427
-0.744358043260943
-0.338707881110928
0.818673918829099
1.1641035442993
-1.35626055380416
0.638789105605382
-0.173927503671452
1.03349990430666
0.931464746803457
-0.48201838625453
-0.0148815746933429
0.231910175960603
0.427469374304868
-1.19543749327811
1.21094762299306
0.956779484302244
-0.511492477160435
-1.49472053459333
-1.36013645600662
-0.654222803382332
1.06114565380058
-0.0621410065462952
-0.240093404631958
1.34121466709825
-0.0137163572125175
-1.08778977102403
-2.60481150507225
-1.01687789804329
0.412660832234395
-0.225551173193162
-0.449167841467923
-0.0987957839210448
1.49998953686139
0.869249322176327
0.433110218629926
-0.925006124594372
0.219564048264386
-0.602864251768766
2.1039223734987
0.705895629822331
2.73789347087012
-0.66570028969881
-0.0706759564432312
2.24540538125965
0.131413496294617
1.4993732268687
-0.00904797531963341
-0.461225759416501
0.752601335099208
0.148515788274662
-0.070911147172051
0.705625364620584
0.203186030735837
-0.195932804975377
-0.44248663059648
-0.884108451766601
0.0932177137286381
1.41441927105743
1.11983903319191
-1.87619227155631
-0.891137432470925
-0.323446169966101
-0.269921111281455
-1.97635665082282
-0.332963630401748
-2.12199995314654
0.748990866827776
-0.165878291237704
-0.181014108907527
0.881570905497753
-0.286603311288098
0.458736180878387
0.764176156640872
-0.0126568479407483
0.145818246955059
1.91387258745172
-0.995060279470796
-0.878140545201284
2.67568791623269
-0.0653532152312105
0.490430043736114
-0.671799424177826
-2.18202333513423
-1.29523185121314
0.474146051428115
0.669697117200762
0.405495651469793
0.58759624834775
0.239055732486381
1.10678538385179
-0.321129423705214
-0.351011521397928
-0.197878842993316
0.404274801990813
-1.36345286408833
0.200877954761989
0.40614747667645
-1.28822448059786
-0.8514177716716
-1.27406324584588
-0.934438708189502
0.0126166444614347
-0.266973888780422
-0.409428008688068
0.328872988686029
0.665121533597105
-1.10697923122959
-2.36298062145862
-0.888018199529695
0.164224583697673
0.286401676100667
-4.93768107304678
-1.27058500828138
3.48847687037157
1.90096440616884
2.07419443044895
-0.343886925247161
0.238661230375079
-3.26014650943288
-1.25308499658036
-0.97790300713795
0.48824842697667
-0.824960619298471
-0.880177430437309
-2.5441392140122
-0.187971351068291
1.64369597158747
2.88322951246658
0.229530189304047
-1.09927459880586
0.920360896194072
1.54969183309137
2.1298993890688
2.32747776355318
0.055195303543605
-2.11553209264959
0.468665295524859
4.74547848567612
-0.995251072082333
-0.484787633925221
-0.850214935292751
-0.220824409352153
-1.27343899268117
-5.19311181954722
-1.16032125957501
-1.47432401471194
-0.354475593829134
0.959847064201262
-0.524549360507592
-1.91554830362324
0.245592460663997
2.30126769041537
-0.309947511470823
1.11804447033388
0.705042816688364
3.36130240158691
-0.564798078840964
1.27673446454321
0.027365422391656
0.575819465242079
0.0448564289614596
-0.0667862665235781
1.07458575977839
2.36042299190342
0.226271892008303
1.14130123299878
0.208075917034783
-0.261024249587945
0.217792881876909
-0.647431163960399
0.7996187855933
-0.112695385910189
0.434345898774237
-0.365313098973311
0.475475626627321
-0.0645956467116243
1.39160944366859
-2.27106271001638
4.76941220755421
-0.486004331360915
-0.0945285777829974
0.0997343773569223
-0.73400021876466
-2.81716914018239
0.231198926374599
-2.32132662069325
-2.23214197517412
-0.561547181731006
0.172562089399483
0.594606522774098
0.618628829620328
-0.272499417239253
1.16907891340309
-1.2004748327411
-0.181624373449765
1.55318706371004
0.32994288391004
0.904964708946719
0.0267405325786457
0.377799656292045
-0.393434796099007
0.379256656726255
-0.265614681355292
-0.300786771134971
0.483935272627344
0.266776137538137
-1.22710322412186
0.00223350909659701
0.480270225492849
-1.44628344829025
0.194903889745154
0.809319664259392
0.112235285530154
-0.705867209280914
-0.732951970558451
0.498112648576615
-0.970706531619497
-0.000240420492420956
-0.132170631002309
-0.35962909545487
1.33429017288538
-0.120366059981226
1.01176881223666
-0.73830410738142
1.70406911512612
-0.984492942920457
-2.90429213189293
1.20273489424628
-0.570613514787586
0.658471763750586
0.30975203532601
-2.29570697203051
-0.96193300308329
-0.308400070137373
0.366055183902409
2.41384677924543
3.04941267012088
-1.65021662658527
-0.342993689586857
-1.20555589581419
-0.000130061892617137
1.31674514988919
1.71835727693713
-0.457115285960921
-0.607695170812485
-1.61798388656448
-0.251751536454376
-0.0309565915303354
-0.0389187166496396
0.466507658193815
-0.168726520868205
1.51274920298249
0.86268197531917
-0.555756471692942
-0.656589002089301
1.65567710028843
0.595157436535032
-1.75436981802392
0.190403697319325
0.615477759089457
1.04240490773045
-3.42645087143693
-2.7172679678919
0.840976701750067
0.0393856482915203
-0.117146904770507
0.339293586394603
-1.01296228186472
-0.139245841075685
-3.07722966585513
-0.190542123831193
0.567661122373868
-0.90108489593375
0.050506988611027
-0.721729796522721
2.47385592081086
2.10648750502345
0.42827412495803
1.14626654511453
-3.00237706949483
3.04029218640719
-0.798422504685384
-1.90016302443981
-0.911791395095258
0.735086754982407
-2.86555201832999
-3.5382265872008
0.82431866016172
-1.27916705247362
-1.45274957233065
0.676003235410032
-1.288466899231
0.456867715635046
-0.76596590822925
-2.87030023434133
-3.53160451556209
-0.476132145899561
0.608573411621585
-1.26463659499339
-1.06277410242382
0.487199367800994
0.596019351111204
-0.296512468112201
0.834564189511433
2.23033503373582
-0.720291929273081
-0.376156844456511
0.565113049007035
2.09632688896742
0.402897552747812
-0.580535309728871
-0.314267919240367
-1.49596903114126
-0.0386541741266674
0.730990110546668
-0.702732604280812
1.25389366333585
0.489891761672248
-1.99500275035244
0.0580850196768092
-1.0752383442518
1.03699785526013
0.355398641611632
0.336076362348502
-0.591965894902019
-1.98624321112008
2.42757294497258
-2.75003207439036
0.792706563852868
0.535279425507717
-0.565679503814374
-1.5156112047231
-2.19898787769831
0.569345588424692
-0.708671384279316
-1.37510307792284
3.39565826356778
1.23562181718479
-2.99774403877364
1.91798295106225
0.528032364219526
-1.64437420733553
2.55007987124354
-3.93595108363604
-3.8055021696496
3.15576571082596
1.26910239627763
1.01421891916323
0.988470570785579
-1.80584802921961
-1.3658271253066
-0.650798933898716
-0.580766240937052
-1.40072477014555
-1.50656731460772
-0.00203959432377766
1.06924806827901
-0.643519336169516
0.44632926718377
0.00988851989813612
-0.252505492155018
1.69972630951673
-0.324995736345175
0.059997285795494
1.49835268953767
-1.49003757911718
-1.38439166440813
1.12622099906086
0.432384360339258
-0.802009447363952
-2.32651841599878
0.602707471404375
-0.379503895842101
-1.54573478552763
-1.37618373253764
-0.987751696400394
-0.522103669970748
-0.171335707469282
1.05950365293575
1.78586597891012
-1.49947919609515
0.777098605747851
0.359314926955821
-1.10818896549827
-0.239889803067374
0.0297262778087627
1.14752811426726
-0.0363770751102544
2.20423038556055
-0.334362061203535
-2.37787791206973
-0.108407140749269
-1.43460662049081
-0.907415965743883
0.174020794155464
-1.66544291114268
0.0122621668431143
-0.481243311721549
1.07263509793988
2.89430067198265
-0.380185564056971
1.09811424344111
0.8652769719774
0.804393967737123
-0.0741481184255759
1.03906708396183
-0.409238962707535
-0.663821896870586
-1.01989665416653
-0.479451123652758
-0.415159488594607
-2.51034787615319
0.792497017714404
-3.05379992088004
-0.909746197264285
-0.587094578961687
-1.73272804425787
1.76332824412232
1.34889135605402
-0.231187595465615
0.591837593408611
-0.227385517884545
0.642785735987489
0.144077405438892
0.745115290834973
-0.0745200049405593
1.13455230437252
-0.340658409513975
0.284986952099297
-1.23485962971991
0.205777694391537
1.69356769989539
-3.13519727159408
-0.0104338310101534
-0.392045781182941
-3.39784343492511
1.32367467178608
-1.29043574408248
-1.62576077662547
0.543299777745913
-2.03919366979486
-0.232016807996076
2.43946626974621
-0.0910844243812512
0.0453915580723357
-1.44594095558348
-0.162967149406943
-0.645280417260151
-0.410541136329605
0.442262396005842
0.986333559349355
-0.170192759752403
1.44855253853918
-0.512213924573873
-0.232273900992681
-1.04212050327121
-1.22702240717916
1.27574886728009
0.440639893907269
0.284401068223014
-0.37908852111602
0.154637194179375
0.894872092593571
-1.27066655255052
0.166073851213488
-0.549253197938381
-1.45000735732312
0.974494769722357
0.136871032167893
0.0499709881192302
-0.672103422728978
0.0102296202842091
0.20830618333683
-2.05641802235744
-0.67704330241146
-1.98316429367363
3.35558082662813
-0.0288356057456506
2.47192506023401
0.587659327292473
-0.659631896389405
-0.617000785071236
1.64972236529426
1.83610032047132
0.572818851496851
-3.12871353038689
1.07868277163218
-1.28823631005899
2.73894008209514
-0.723853809270181
0.0469810455080609
-1.21683678406853
-1.61333134618796
-1.27505452854918
-1.3740618279555
2.97355354508256
1.14506492347981
1.23387309385226
0.816249964807762
-0.0172720311875265
-1.314054279229
0.43740538624502
0.808040295431272
-0.592150616531747
0.712399562914278
-0.0997769741718686
-0.172863259214465
-0.674414860893513
-0.0494549448196314
1.89115968883555
-0.296395973261873
0.703668905728042
-1.1277749904638
0.38587581824068
-1.55738271641837
0.456781353122547
0.130244279038166
-0.240472347180656
1.07115244169683
-0.500138538894603
1.54932063548621
2.12310241764673
0.0320849498618995
0.937115119793341
-0.609207483538546
-0.631080332832907
-1.40901569817348
-2.23856910014752
1.32558747107761
2.26261374238235
0.20963153086516
-0.298228334478874
-1.99338118396074
1.18141255637649
-0.915655941497988
-0.867237305733705
-2.35572455019106
1.16383527543758
-0.416999598395812
-0.64173080178873
-0.549044903681628
-1.60401103579844
-0.889902796560628
-0.755884199842457
0.733511980886117
-0.934986755716693
0.44397797256416
2.31658790232394
0.628540054001989
-0.292622375271621
-0.393849397244894
0.873551381566619
-0.0550944507043355
-0.42037846971533
-0.123444535161005
0.47584238533934
-0.832020158096998
2.44771984140692
2.06615080718891
-3.03340568054333
-1.58376546393621
-0.00543113540186081
1.22583974629031
-2.7053967083906
-1.97459059549221
0.733283839313348
0.379276469415621
-0.240005344134971
2.14641286288543
3.17172397012943
-0.171913864782226
2.07245472670404
1.45055241173639
-2.03308708374473
0.712869429200869
2.43130834237038
-1.48002330780832
-2.59123444018702
1.16552679621186
-0.123449870116832
-0.762612623845217
0.049899287035079
1.90704902157846
-0.537319744457644
-0.967611322472554
-1.72706985492074
1.1663735514627
-2.67133290181561
-2.46616357160468
1.5331100801156
-0.122995588354291
-2.79720891617291
-0.637259760992449
0.544655301793072
1.83934368686567
2.88857968896435
1.19487816225192
0.437128266293805
2.30312890847457
-0.0962789174283868
-0.413872309431026
-4.87481257940761
-0.226797383899321
-1.07954584032707
-3.59172877048567
-4.34621886343401
3.06332984572525
0.269355101957396
3.69974904924168
0.202456576190586
-0.841693366191737
0.956817343219254
-0.106382792556773
-2.43940697485868
-0.918301074729006
0.206969684001579
0.42985864694628
2.35701837254265
-1.02891334692189
-1.28476282754771
-0.617145647454955
3.22457618304037
0.384903182086856
-0.116991971928173
1.29607535530485
-0.867805626206288
-2.90513283043261
-1.22511505508458
1.87636450086194
3.80263667810514
-0.276967693922893
-3.49645207398872
-0.622295257693107
0.526020573120753
-0.215322802288831
-0.039135014164142
2.65700257988194
-0.577659645090899
-1.16730463328078
-1.28093307078449
-0.334096215672936
-0.364845474856601
1.4288745286936
-0.00923709607731504
-1.07109102939229
0.502561046562744
1.73713245615039
3.41146985350348
1.77489364051415
-2.09790843798884
-0.759167797195979
-1.87746821909952
0.0200717944378677
-2.09855741266237
-0.195836160239613
0.362277768226186
-1.48758697095236
-0.209894578550104
2.21135655038187
0.343420849536723
0.899436408585426
-1.17236805862816
0.662930093488159
-0.350789312369185
1.37074398534473
1.4239589283862
0.212208549951536
1.03508298462152
-0.577089785619017
-0.467948773377648
0.0407576600364489
-1.39890236248296
-1.50994838250468
-1.10652711192383
-1.9300106506546
1.20169335035491
1.89784686482961
-1.70996619549096
-0.459922642655254
0.330742442815189
-0.759799985592625
-0.961820653381065
-1.86633410436074
2.08390940320301
0.411813948300513
0.245889595259883
-1.84789569329583
1.95256979255796
1.44254858702745
1.71077617609406
-1.70867899713043
-1.91174203489612
1.03276414160112
0.409821085705361
-1.18090012140713
-1.42083936346446
-0.302005901711802
-1.75504954015731
-0.564874550921723
1.1773981952785
4.87184079270743
0.150541130041284
-0.325401790947171
1.01297837602351
-1.85499340444282
0.00568245402303479
-0.792105945011469
-1.41702517095965
1.09326136255732
-1.74602080334221
-0.962945302441199
2.83577766323266
0.996833159602498
-3.1970796854629
-2.19331615459243
-0.728267036782111
-0.858084409346361
-3.71879579179611
-0.603954622211755
2.98176395663061
-0.675170115908044
3.50820565680936
0.617624566738419
-2.21716463325607
0.506296894627851
-1.75136271769382
-3.38955432515091
-0.312893093148509
1.14386718094362
-0.896001377554556
-1.06329719264763
1.72997582081827
-2.4856422472751
-2.73878270523624
-1.00600819728536
1.99418495802458
0.0103747226296546
-2.24799497719558
-2.93138566885877
2.19516100615001
-0.533623058630525
-0.629713035706779
-2.32097835302333
-1.46353327183479
-0.764770736719771
0.279851387480511
1.11559908566177
-0.62636223656465
-1.02628896964311
0.680090863951354
-1.53667721994912
-1.7071114602217
1.12592011062448
-1.61512282331575
-2.6088948186391
-4.27815211534569
0.337644910278658
-2.09006328512163
1.19484459491837
1.32338663537954
-0.0834719223750149
-0.85373402743982
-0.723404126254894
-1.05969646453299
-0.767851835849616
-1.9454921893405
-0.603567735532871
-1.22681460837066
-2.42671051511562
-0.647254988928889
-1.01777669581902
1.08821456491897
-0.0866028639722836
-0.289793385032018
-1.92682303115105
-0.688783827835881
6.52535073777177
-0.472868753628386
-0.558037445374809
4.62593904242766
1.23047301601563
-1.76260875699041
1.3873048232139
1.46677089198936
0.332393305275905
-1.55512840902008
1.95296346665494
-2.74996003039981
-0.361075897705736
-4.43633486384819
-0.95054411433306
-1.86967118428935
1.35557447440534
0.0968773683190459
-0.913161105102521
-0.231559918488057
0.60757609989717
1.69063709145
0.222794562503935
0.559996803474167
0.719800043629653
-0.00598891170722405
0.394361355602423
-0.103461541297066
1.20826419363658
-0.488720821132526
-0.887003632605323
1.66373405025634
-0.17061504143325
-1.03134849587642
-0.38527059593004
-0.636960656466304
0.204834400323306
0.398410017464822
0.637553966308331
-0.674998648443204
2.20803701002728
1.42175537407212
-1.99127721961033
-0.599217902286919
0.754621748972344
-0.314892790824138
1.05569873823081
1.65726716021032
0.478583468103328
0.163262393452753
-5.93106789077404
0.367123919275377
-1.25016044965289
0.0262968726006637
-0.0547153558129875
-1.16928810240618
0.385249574974908
-2.37658051966633
-1.01110736567889
0.213576339304067
-2.97225206706012
0.235040686880873
-0.106745188158566
1.20862437512371
1.38999005777702
1.26494043462681
2.10611756568047
0.725794644640383
1.3497994560994
0.299957759953666
1.17464781498967
-0.0831279132024699
0.715452057574677
1.40331383216025
-0.499977964072756
-0.203013388409744
-1.47857867737244
-1.24555125300835
0.275110097777522
-0.246535669924833
0.121757709479248
1.04118526070531
-0.534419551909191
0.36834946435741
0.260358591511207
2.17906266431178
1.25396124950278
0.856198670765226
1.00170214482447
2.36879008114634
-1.68820401208434
-0.985480542650596
-1.88113129417366
-0.573644230831761
0.649848402736698
-2.30451865167413
-0.38244466340319
-0.213444790092212
0.794181389541508
-0.0837917892612865
-1.05119332997875
0.949434614950343
-0.925700764309059
-0.402016687186566
-0.303664560568579
1.25688781104741
-1.91497998075976
-0.565521803173187
0.565893326275482
-1.17445852614987
-0.650235098019115
-0.00764883793122935
1.44779277036988
2.82206764711703
-2.35771350474621
1.41969750422565
-0.234540882253708
1.97392181708913
0.208224518960787
-3.10830538952027
0.0215058885723021
0.747017453830853
0.268172726051275
1.21488165587784
-1.37002092697732
0.705042545830604
1.07516161355865
-0.0867528000880382
-1.71083073895623
-2.22949896931034
-0.197503707629395
0.507492023537506
-0.721058184790459
0.545881404193074
-0.613876958652665
1.76273347563665
1.29548461314603
0.791665313792631
3.29330919742381
-2.38074601096304
0.752049597544455
-0.561323373504021
2.07340128260315
-1.53278290028769
1.14796135525735
-1.76502725719236
-1.68301530138168
0.945755672118712
1.17685090690301
0.470695728491273
-6.46781462589027
-1.43224253725751
0.983578872482983
0.0252896755649681
-0.836050987286945
-0.345800462649651
1.21651309121776
2.15005282679145
1.19402653197672
-0.474116956952843
-0.519483120925733
1.32916490783936
1.4120542189189
0.0102445211834167
-3.54731969443015
-0.0215331655362032
0.528616749643513
1.24088712681863
0.283477091058501
0.170053040121145
0.108096965851438
-1.00917217801955
1.0571880515445
-1.16123048899571
1.26078107733182
-1.58328545921969
-0.357557089302757
0.339771447511869
2.35264703852703
-1.6177456001109
-0.366625605237334
1.63369536972181
-0.400887972603895
-0.823621659036185
1.08015262977723
0.980191736613634
0.128473967364587
-0.578163365767696
-0.0551738118163133
0.675971543206681
0.169559515999937
-0.47201424798562
0.729576132772982
0.511145309891625
-1.00492902865899
-0.705457296530728
0.445185293470227
0.753763067266323
-0.696955127797054
-0.902144248052396
-1.9447582669716
-1.57766997940839
1.77228483568541
-0.034909124692031
-0.259604682437895
-1.73381278099151
0.273081481978368
-1.01637804799948
-0.873686362462989
0.577561114618758
-0.150312782057018
-0.0144519016744335
-1.53555974276322
-0.423509184365857
1.26044559353102
-0.0841235809097968
0.896076759352844
0.930525957706045
2.66312978259064
1.80872173863321
1.11033111757652
-1.06673022306182
1.94701002720746
1.16211628420878
-0.368787955525365
-0.758292269659995
-0.182977444334249
-0.98306719933228
0.1418495686896
1.84876048561697
0.00420909081573207
0.332656638905762
0.450522616806721
-0.109200584342083
-0.788151130042795
0.448210328531691
-1.55496712510053
-1.03653930353522
-0.13126779905541
-1.28908877571152
0.239031185512661
0.319056063520897
-0.839541733971904
1.59034606999677
0.627376620861757
-2.37559582028622
0.613099900436622
-0.72455504605371
-0.606782402891828
0.287378655393286
-0.619599971120575
-2.61261713167168
-1.23021858154712
-1.00816354417632
-0.2742863955985
0.231492364500231
-2.03353809544878
-0.633976275794357
-0.485763081144154
-0.961281727424281
-0.197901691538682
-0.243722454657434
-0.266748598126712
-0.321244190343215
-0.0238443889005694
-1.88767351394382
1.31538812445299
-1.87302195550307
0.435431591941343
1.29036989075209
-0.881010787347179
-0.806585557772863
-0.124673545351495
-0.552081480376033
-0.386235709372294
0.0918246408764259
-0.128492653655834
0.718098308864563
-0.74172927452966
-1.56283587189015
0.0802007050147777
-0.646205277366335
2.01772496829558
0.772257250788534
1.38085199582944
0.343786155467395
-0.0602021122853439
1.21146393646728
0.074608483356716
1.99950780807659
0.927233731497219
0.243861107371974
-1.15822047582062
0.155921998071421
-0.368166369334788
0.937942777469403
-0.162380887864845
0.437107257843187
-0.250986776835495
0.776065538788014
1.87216529063721
1.2614687013219
-1.17647523239003
-0.917179606750128
0.125043830964027
-2.5336485680221
1.3703302347476
-0.12344835844367
2.03732015814001
-1.67368205866534
-0.284111708554824
0.620367219446591
2.52091641669176
-0.343688213067443
-0.851020443088323
0.0971022962125387
1.21524395211535
0.543284208634324
-1.38935566937006
-1.99037092074264
1.06948847386799
0.177479236028418
-0.566101718452594
-1.37529569177647
0.621515801864806
-1.07181668090864
-1.54201100980189
-0.290742358273274
0.830717237678558
0.170378119841677
-0.675476572051744
-0.0957675821060755
-1.63377245378842
0.561531902248541
-0.113100595523054
0.411133701349352
-2.39203254624027
-2.01223812045744
0.701464969373378
-0.351056835195881
-0.264670740573383
-0.827498647778047
-0.236020368082297
-0.132270323025172
0.738937573308065
-0.41218775444658
-0.61317234344075
1.14622683696665
0.224732156166416
-3.04936216104249
-0.364156695538585
-0.905716283763364
0.384592269385301
-0.634431049486637
0.536007748530654
0.362377346661871
-1.40504559864976
-2.12454113717013
-0.948041866267207
-0.150678525401564
0.323508946617858
-0.361965153025107
-0.904058023375061
0.643473325189827
0.737452195826039
0.564520926244578
-1.67377783553086
-0.211471032502845
-0.767404901678914
2.94206333887287
-1.32669190682063
-0.967435324862158
0.181872919498694
0.266224492110462
-0.0769473291838557
-0.582581147693103
0.703695592560647
0.246558398426757
0.592216656593578
1.5213957240288
-0.242750717216582
1.97485549600848
0.351326218636463
-0.402317528715698
-1.21746282937611
1.13541083414527
-0.114327823793326
1.15801309101375
-2.87266444483699
1.68276789583729
0.370570763378314
3.64718159431819
-2.47495823214464
0.114931843618082
0.183745674954706
0.197225082278419
0.632143646763829
0.0254782692201775
-1.95683401829569
-1.23014330482562
-2.36034489990514
1.36559497538285
2.90592354803501
-0.733036218205018
-1.27174130348838
0.0848695419576849
-1.60834230419418
-0.784383672750308
-0.514419569202676
-0.0587514980356267
-1.17424468076102
-0.813184884957331
-3.76794605630727
-0.205387893938368
0.136401066247782
0.114699097518419
1.16639176530727
-1.81980119751855
0.862228159699427
4.84614389574002
0.117935434016864
1.16864576796566
1.70308782622085
-1.97559045500906
0.997382791660864
0.358463316025733
0.0741388883107371
-0.356025268148979
-1.93729837493972
0.188972171784619
-1.03163677660606
0.744609965397455
-0.968560417662607
-0.309469311129101
0.477527971130722
-1.54557117770115
0.425887200302391
-1.1369190519374
-0.724866185606688
2.10031220895392
-0.903406164372507
1.54071493366854
-0.0703585857318466
0.831360622281182
-0.413125886415141
-1.40085880762523
0.68462394154396
-1.14626398808402
-0.0536393831093241
-0.187531038946754
2.81007746954625
0.0406246272055798
0.301413134822701
-0.425724622634273
0.666562302953906
0.716502208124486
-1.00263506965856
0.360253394779168
-0.0935580794100548
-1.02455377582274
-2.35643955909508
0.849892395535421
0.518558839675512
-0.803350757698223
0.891598794520598
-1.26025324927559
0.60853518103723
0.801223602133757
-0.241919772474149
-0.792492312948004
0.498681317485206
0.00482348223723621
-0.837314483977584
-1.53747016582644
-0.342676816888725
-0.384078509614738
0.106985517795572
-0.456187083510743
-0.0255647888440551
0.5141221478822
0.251491951790206
0.276465465415354
-0.786462656201993
-1.13529733442395
-0.115046632895203
0.994082892416897
-0.993453576685429
-1.1389537354481
-0.480203433753255
-0.556668770218588
1.07141536846837
-3.49497559362349
-0.0589877968042151
1.1606513757516
-0.316846097232939
1.5730782201907
0.555473699460195
0.790540444773261
0.486465722133872
0.841268719418074
-3.63524144809733
0.0255372437353252
-1.94096598416147
0.945828419542216
-0.0696659097231776
-0.943766114822225
2.13841597539499
-0.0273170350575093
-0.478306412419151
0.469764948762191
1.1888107778812
0.0851013856143738
0.582238693262789
0.331949684699173
-1.11958771025844
0.115271473466103
-2.35915313977487
0.509537138127251
0.145252057065004
-1.28805046520571
-0.607671228571831
-0.444463341330978
-0.351843768898756
0.880135616434448
0.983623353082302
-0.301190748304303
-0.470465548354771
0.977508700113757
-0.23849750357605
-2.49187447999127
-0.621770056167829
0.955692589872123
5.68590093196154
2.6753489481319
-0.903017115559021
1.07441855482993
0.736976218985716
0.330166152397818
-0.673422948911709
0.0747364306701141
-0.491665420835338
1.90692459268274
-4.09923821050683
-1.6456675357833
-0.310974406072158
-2.52578105508484
0.148716016158281
-0.453026062025655
-0.0035468975195381
-1.7410035066804
-2.78832374547436
-2.05657055753389
0.412263390006199
0.125336334583887
0.681208496817278
1.33579035224995
-1.02684538501163
-3.8291671946121
-0.111915347940908
0.976834530320139
-0.604444128449373
-2.23387378012103
0.135112858184835
1.50115260297633
-2.25760779558812
1.54775586727784
-0.122994448605878
-1.70727188176474
1.17407195588257
0.257536306484356
0.654946234852265
-1.99602075301676
1.33273420652439
1.00682169422388
-1.19684777148826
-0.786800772902209
0.550320397931817
-0.868519429105861
0.614967999784175
-2.94906747669051
1.6025821297646
-0.379526089461941
-0.559606094411929
0.399681809488045
-0.466502805228666
-3.3732811024932
0.108775394510893
2.28395481760565
-2.24296368031027
1.39282513075937
-1.42495899440589
2.34215059611494
-1.84317508994456
0.217038514764062
-0.242423442834441
0.0892902005203714
0.650683701914041
0.116465780315274
-0.939464112891999
0.161073446804405
-1.27618615128809
-0.0416599591687261
-1.48710655750569
-0.541812992405869
1.29829165948532
0.832731895324878
0.890648677224226
-0.916117996336124
-1.50119628064696
-1.2821787887843
0.711221818635689
-0.151174384362265
-1.61091862644406
0.98965393050674
1.93973206856659
-1.55025759653992
6.58323129380865
-0.734465794427573
-0.940757791476218
-1.66895537278353
1.00134868759724
-0.471037890942104
0.0615492485369866
-0.480405913123503
-1.95525047407588
-0.904239905815652
0.733211342785984
-0.843248853653472
-0.137546501092195
0.916224571615311
0.74142447652009
-1.60357176374802
1.05827342907344
-0.176755218003413
-0.0125698063466108
0.304728896788108
-0.49225153694976
-1.25316116951377
-0.716643352443818
0.374519424945491
-0.995095392088487
-0.326795872430361
-0.287074110519548
-0.935372405256304
0.517014314111819
2.27075623008698
0.686379936530573
-0.345064026173226
0.459295630459498
-0.19744048231405
0.414555526674457
0.552355034620648
0.212738723177599
1.34778594355144
0.0958712011519529
0.401123921833111
0.957953524891854
-0.323540962025154
0.545839300651375
0.155809055707529
-0.685852048961081
0.33576231451334
0.291657257630898
1.46021447657764
-3.47218259310114
0.823747207181231
-2.64307680642683
0.567790154000404
-0.543562261089929
-0.477103975207793
0.495528571079688
-0.0360749610892331
-0.601092916873851
-1.80107732432173
0.537291595443552
-0.086053960755601
0.301484777496502
-0.95232063859298
-0.442358813212686
-2.90961294296056
0.161259419064753
1.95206425201059
2.83391650918618
1.00788403539119
0.021881055604823
0.299060426364848
-1.76955849537353
-2.22799193144129
0.567197654796218
0.744762162902357
-0.642048097251774
1.97922463642475
-1.19119073386189
-1.25699770449507
-1.69593581417092
-0.444135652683589
0.11808606080032
-0.80805517074795
1.41058222538679
-1.87879285126206
0.69219275765967
-0.816894211318411
2.66543742679541
-0.0932048536799398
2.65570521509823
-2.03909476122779
-0.518575653327962
-1.59711076809435
1.30427633507226
0.835596769160356
1.38179733982019
-1.3318647683817
-2.37580575041555
0.559235746764017
-2.028089038704
2.87674869033484
3.6194253149514
0.907883809395559
-1.04626582513013
-4.61032316398329
1.64413379709248
-1.3154039163558
1.7886457648273
-0.336618453878492
-3.8301717202259
-0.173745000379251
1.09142409776646
-2.09384595241032
1.24493189328651
-1.03967686348314
0.842289314221059
-0.736365908950985
-0.986159227481341
-0.878182787813627
0.201223283457144
-2.0039187216479
-1.12500160208673
0.551827281143392
-1.5666433188794
-1.55095007912119
-1.56875865709646
-0.693274805167225
-0.804378148107276
-0.363785409614597
-0.544022315020939
0.59484142529541
0.599429095162275
0.198876639795811
0.711572499491172
-0.582788413546621
-0.826357266943726
0.728888433763396
0.981640573269418
2.29714622206419
1.20503742128527
0.350062260591131
3.16081332582769
-0.57260532358313
-0.299565189010893
-1.06831773583418
1.43444851468873
-0.540603682086116
-0.305420380475828
1.43959255721399
-1.89828378836601
-2.55497910130311
1.72831183394806
0.826796273659023
-0.955802157227795
-0.860455483154503
0.177329586778165
0.444071624800816
-0.450251874783469
-0.140393409353664
-2.10094481168266
-1.54198847056099
1.36065439207992
-0.905239603726263
-2.25865578826464
-1.40512408473226
-0.121856604172913
-1.76729755392459
0.854532286881387
0.224901338751869
-0.330195946365136
-0.438622706422009
2.23018636884165
0.55313911007539
-0.0439296045205033
-1.12609906737815
0.0603206556062647
-1.15562691927604
-1.07789722166934
0.426976027929273
-0.0881554934688976
1.07109985913505
0.628552318301693
0.0688550472507726
-0.994568897044727
-1.4337404901623
-0.774343507691342
-3.35318912915611
0.149469552332099
1.75485396107944
0.204967902982066
1.16858104408513
-2.19277925419748
0.494198958877413
-0.791711422888289
-0.283003100282153
0.531887458786831
2.06779751855156
-1.55931485680257
1.08583801889573
0.0799852127182854
-2.84624201256855
-3.13791822282986
-0.196691327162923
-1.51537159692811
0.572854472985014
-0.150444694738372
-0.213971383646942
0.642972045524101
-3.54367686704601
1.10836304172232
-1.03834261093771
-0.0758950864116634
0.273315766865953
0.164487554726434
0.746463779384676
-0.459953161052491
-0.441961879255634
1.2366362100875
0.29623386548911
0.548250804000732
0.204096535460007
-1.0620034766023
-1.16753984299381
2.49061442698579
-5.1941794524547
1.57924420940165
0.506256383318778
0.345602855659741
-3.59668077927117
-0.494927979628732
0.939725644121264
-0.113689582209675
0.628339661804149
-1.61435512376914
-1.10461348061966
-4.40620966748159
3.15276849972055
-0.803997094605406
0.708525856466773
1.5479796961186
-2.85160028618237
-0.4876136244406
3.11748529895517
0.97596502614143
-3.86137167560853
1.0178638769259
0.939665829186212
5.26433160995002
-2.61813356567529
1.55866452658034
-1.55094828932189
-0.627906703705641
-0.0513260971869565
0.0350498840986244
-3.93553625291386
0.201822790381193
-1.3419261954747
0.992025702815965
-2.29539983977485
-1.37490917083944
1.39533750912662
-1.68655271853484
0.168175592558742
2.93900483204208
1.70928751786269
-0.611234976241776
-1.65811506779183
-0.29755044665607
1.26668190332305
-0.208535892791158
-1.73001662612785
-1.37315987673771
1.32033296358332
-0.678812350872829
-2.77683650548115
-0.121079633647277
0.942684052968235
4.08356061472194
1.72111873323627
-1.57076316613469
1.58507801819299
-1.1435318931448
-0.732436019777512
-2.41497387872929
-4.71200611096908
1.56400305663871
0.323310005967111
-0.265812943581649
2.62003573265413
1.09577350322944
-0.0298839720953657
2.37460484752839
1.28606846176141
-1.01180101013913
-2.01876981884069
1.4758157207033
0.201370044450084
-0.0641526133814467
-1.49917430848717
-0.233792154900618
-1.34368000673933
0.803376719715385
-0.260123689195035
-0.419834071213528
1.19712643238269
0.909671727834803
-1.33050497235831
0.140304378537955
-2.96524128240359
0.872078032766161
0.565385721560409
0.401660608332131
-0.468494757865406
-0.860070900203904
0.0165148753588263
-1.1360356443893
-0.541856172210581
-0.949026342536645
-0.369234866706452
0.598686887060029
-0.827821098526132
0.515078138854254
0.833000867337666
0.463278716730157
-0.28163294105639
-1.44308343349387
0.0342393768487089
-1.9500322271053
-0.46704153282635
0.675973789025436
2.17767065487045
1.43697812944217
0.585209464325107
-1.5883378116047
-1.67560020446422
-0.0466642034140203
-2.11938443607029
1.73465140799139
2.52612255745748
-0.188779196780547
1.83312933031347
0.292394368526171
-0.856409919513554
-0.506762181026261
-2.21903557014176
-0.220206225859187
0.482556482341398
0.751457491042243
0.268235956395467
-0.856691056217308
-0.0623676617106196
-1.93864210851017
-0.0321606421631231
-0.921131043413691
2.93801664140026
0.43718428446006
0.100991599294905
0.148714134439649
-1.44080350251502
-2.85951394959775
0.292954392901138
1.28420863895732
-1.1934475719373
0.761973279168507
-0.576711380764491
0.183103201917505
-0.4104353344486
0.0711490277678702
-0.984831967913501
0.222257933974285
1.00436332825089
-0.148163900774343
-1.39671531936542
0.372364783442308
-0.638024871148989
1.23257802941108
-2.92710638070969
-1.32069210924845
-0.996279912799207
-0.252963340571624
2.40314570350302
-0.594699805881464
0.583796276049249
0.652233755852389
-0.786675256336102
-3.0307120045521
1.48331553353581
0.0951845759087893
1.99978449049069
0.944175692469211
-0.665321094238388
-1.8576675834002
1.04374691181637
1.07978190116213
-1.33043234966023
0.153200990015745
-0.0452705062677706
1.87425472190008
-0.39361391801041
-1.32460009996022
1.48096885114741
-3.99298122848527
1.0376908720219
1.85665512806025
0.851497028746043
-0.418926061144737
0.363862180420013
-0.237305082123737
1.09888368552771
1.79731313421488
1.3363079213249
-0.81498836224542
0.405349061817771
-0.156101755828771
-0.0774299078771528
0.239360104365004
0.130073810543759
-1.52034019953113
-0.816749392051959
-1.54104984408879
-1.7275272713455
-1.17387930355489
0.119482316462462
-2.50474107385029
0.473215502902687
-0.914147514210459
-0.584031723014047
3.51924739114475
0.318618088565511
-0.475646636397251
2.70281818039615
1.54138628174297
-1.89258288730686
1.3927151585343
-1.59288856085346
4.40815868262864
-1.19462307986975
1.50028952300835
-0.488542167490199
-0.398428412323991
-0.127048401826267
0.7212503130238
0.901509940281634
-1.1552902423102
-0.665849410236155
1.85664273847078
-0.84567116957832
-3.02180247143196
-0.0539903777621161
1.24414860823483
-0.81195684300814
0.862118421345304
0.412467291451049
-1.28075309454711
2.29423830938214
0.0198233205308781
-0.582656715564069
-0.0501189092285469
-0.206847595827519
-4.12544092614833
-1.16897949312474
0.562017638907365
-0.0538850408952312
-1.46130825405063
-1.10014464773265
-0.0634209135576963
-1.01820091692232
-1.46991913914984
0.563055471038958
-1.76006701421156
1.93738518497688
-0.224428853314833
-0.0110569296470993
-0.490580919611415
0.240348410911075
-0.137772673871974
-0.220420985031742
-3.17572623864091
-0.094751912111883
-1.44351933228962
3.33024384264089
0.813093988718414
-0.855310335379809
-0.641274661655231
0.484238373880057
1.1234966306103
1.18648168600967
4.08732873123978
-0.367220250507108
0.0925148700815156
-2.09118442661892
-5.20614794079686
1.09270112371167
-0.979030313564592
1.90348863643886
-0.0798810794256825
-0.964632989848811
0.983988444383417
-1.130527516279
-2.46746458715586
1.81204459623363
-2.79132164951469
-0.233927582696423
-1.33539116723196
-0.758558235580286
0.612281001541871
1.59409467703626
-0.535356448601671
-2.37947763053692
1.26441846479221
-0.3337010365072
0.112993884001066
-1.00819707160149
-1.84398729976585
-0.680187704458414
-0.496353687497896
-0.531780031452314
0.171527880998735
-0.618435391139536
-1.87010900814696
-1.19314325746701
-0.311272245817477
-1.07037586642343
-0.687383454147676
0.00408106563339375
0.9910592469372
-1.9695920481035
-1.460406668405
-0.427116951770452
-0.64460936244653
3.67101024995168
1.62838781979489
-0.552788688889064
-0.52490834333905
-1.95901037083293
0.566049474578242
-2.74371231786848
0.484241716550539
1.77947883770361
-0.436316568948608
-2.95562972346804
-2.35297102648561
-1.96734449315223
-1.43409001470857
-2.08716802466469
0.392449829185113
-1.01403733862477
-3.96618647246653
-3.81440665024006
1.07541926751571
0.0911806787245456
-5.42396986902586
-1.31869666438767
-1.56574404438235
2.65728213188319
-0.279463572846597
1.31114561117238
0.212361042018546
-0.304860603158989
0.543044656976725
0.944465851584552
-0.863662276313098
0.418413787553164
-1.8774278541807
0.362716935500296
-1.80094655781466
1.02660548071308
-0.0443217727510572
-0.549478811470243
-0.939877112029584
0.857595535599382
-1.02375353668083
-1.35705004075859
0.128391910356619
0.7190422239922
0.722777616549261
-0.404160251992886
1.1602607165572
0.960011713753467
0.80165250024076
2.16571904483997
-0.0216965495824658
-0.550667581992602
2.29068165797614
-1.73332175715176
-1.14616149291666
0.31145087399389
1.50787896567327
-1.49918347040128
-1.24119666001085
0.518486451697583
2.47119985987923
-2.62363839605633
0.47216504070752
-2.02599764707444
0.281974774587654
-2.6737475042001
-1.8498825501135
-1.12569758592653
-2.15351037533891
-0.530362891231303
-0.758059442991839
1.037654534485
1.25633397756009
-0.0404100861083317
-0.652285262479217
0.430297727373653
-0.122515972647554
1.76591132997264
1.9597355304869
-0.751346874760477
-0.240301814229854
0.379999833332564
0.0644190350657967
-2.64382522169222
1.38730284098214
-0.658513014689656
0.613163117246033
1.23360575164435
-1.07952739774832
-0.741470222506416
-0.0811540565150759
0.00670458419510236
-0.190203961765607
0.877710044348789
0.415611789079534
-0.740115380330241
2.22367343259783
0.114849143406179
0.0454223518541831
1.59736731356917
-0.12452270586433
0.173234710368838
-0.570643456021142
0.23347372268671
2.0466542972746
0.512853721954527
-0.308934170191054
-1.11154363840124
0.111301494504594
-0.130675157927318
2.63833524264813
-0.52289465181604
-0.417930504104707
-1.59582944307659
0.734241957546358
-1.08583658687476
-1.31679967938997
-0.250104955088904
0.0797234458458975
-1.20652259680205
1.2016481866176
0.139882642395558
0.315571934758378
-1.06206486732926
0.000453461828884674
1.68257310166071
-0.412722502468934
-0.368142511343398
0.573334329697882
-0.585913392111454
-0.129386556432916
-0.0586477850464382
-1.24660681836992
-0.476909185716274
-0.343130579369325
2.511075088397
-0.611715043411335
0.640955272398162
-0.856577268142728
0.205855060435579
-0.0418584297059555
0.68523439839562
-1.19825516529767
-2.8204721881968
-0.430276412064062
2.81463882466711
1.78560783450806
-0.263519439518795
-0.184098432247168
-0.945592369416143
1.00260426789939
-0.120622695848905
-0.336381986660914
-0.135373467775058
-0.869945293957468
-4.35735362586292
-3.53337735957788
1.38501863600831
0.927006265229258
-1.48095725657089
-3.81596256843751
-4.22235482311854
-1.04785239344535
1.39983401099572
-1.01645513257912
-1.76661864579758
-0.754901456363311
-1.62061201856763
0.618792889075175
-0.81772112013015
5.12245643126411
0.0760069476404138
-1.09385123162275
0.811287336751399
1.61091977836628
-1.38230586082034
0.396735283718822
-2.49701312041792
0.4197311456044
0.0360008828290956
0.441982138414084
-1.64332506896725
-1.17519295619722
-1.93092288931946
-0.882054801701093
0.89769010829421
1.74708992583444
-0.599361312607013
0.636698992358144
-0.304092804410635
0.344856206564722
-2.12416074784034
0.300486598768962
-0.323507423268285
-0.130742600581057
2.08340556135623
-1.31997684372171
-0.748494643208601
0.794447690047346
-1.90552038490941
-0.678508375015842
-0.0271033323802163
0.0871076153557063
0.527714239184483
0.800563771951207
0.316212010710734
-0.30095667284647
0.736147781243956
-0.341712963138161
-0.0621252298139878
2.76587450380381
0.847594866557898
1.06921510911434
-0.181972132769052
0.0326509034715024
1.93834232744277
-0.888680539996992
-1.14575272617297
-1.68287772435176
-1.62112976001104
1.21277982428375
-0.166578168451905
0.534499577837253
0.405331481180788
0.298681152620899
-0.336935514607443
-0.607105234385697
-0.939675916777815
-0.659223563867407
0.658789434374754
-0.539850319796457
-0.599464038229045
-0.0440704891704952
-1.78637058001044
0.286662515701837
0.412549866466814
0.460055896275113
-0.648295663616402
0.126936753600209
0.0370050735624244
-0.0939424547421945
-0.670699293582555
-0.0717768528924019
0.209056273306371
0.0223730247020894
0.670619876883879
0.0516691206637894
0.0998130651686992
0.325036718259001
-0.613195679746633
-0.228626339150313
-0.576449331520458
-0.409725806322629
-0.212143663438978
0.734926998639291
-0.0989498840105981
0.0395726273970603
0.177027065396393
-0.227508249389909
-0.322012381743929
-0.339241917318366
0.389547924108861
0.0740486592996404
-0.147391604097894
-0.13292522767565
0.315411497866106
-0.290734286864129
-0.529334093908634
0.578934779924565
0.0465729827135074
0.462763220092351
0.0719565924118384
0.132476397198617
0.185970293219197
0.66911472256841
-0.252485379778298
0.519560153201542
0.752102583577371
-0.227776141247501
0.489538934809552
0.0689227347058792
0.360992173625708
-0.254894979732268
0.238319001746923
0.0631500859563325
-2.19082515509042
2.72836342965258
-1.28807433276423
-0.610321125454297
0.668684678166469
0.191817627130403
1.27056487752641
-0.828344723274242
-0.697205033899949
-0.646308506429071
-6.59838202089144
2.00659411529778
1.2981303618913
0.999870783231066
0.401596818472612
0.598838934600561
0.567731290935838
-0.681625793664566
1.57543176532334
-1.84045129333792
-1.91725670151494
-2.71129799123622
-0.045790940178009
-0.963309474485589
1.69608976409734
1.0037259737086
-2.76455270682519
-1.25898075370021
4.04809349540244
2.28848525927055
-0.801645855269925
-1.85104688662275
0.264660426463765
1.11591043153391
-2.56173824693633
-1.15238941255221
-2.74508197992429
-0.674759553660219
-2.78182107718062
-0.124865907469378
-0.082670695981214
-0.527205197977455
-1.04764068727364
1.92840976726371
-0.333183627014328
0.351762376174734
0.424644032491489
0.413732766663015
1.78984410366784
-0.812884724399181
-1.33937281534057
0.321760385307916
1.8096026543253
1.41496024310027
0.903026635172553
0.123524924486049
-4.05791971102371
-1.28552112611435
0.480912816425838
-1.52278938395972
-0.055144240133624
-1.53751990464749
-2.09492286598119
1.18144864750921
-0.853661861156734
0.00735066551995843
2.03652018734971
-2.43935684234635
-1.04979631583532
5.02652570750889
1.25515416552347
0.402620553256914
-0.182322181569367
-0.253959420809086
0.39332653119553
3.83767219198874
-1.46863054156853
-0.742593387155885
-0.889476289495546
1.15295773656645
0.561984948861152
-2.21139909358275
2.72900268743961
-4.04553075175455
1.69328606795504
1.32200568854569
-0.648498803696187
0.732481894578455
-0.604963148820743
-1.07329120854945
0.0588813279411958
-0.577539336942613
2.09494681097708
-1.11361474501513
0.265983161266817
1.36217433069894
0.80576664444855
2.41992025585486
-3.46830829545931
-0.41287782769794
-0.772169005554019
-1.245000378822
0.675061372837424
-0.0445065731772328
2.24182801403882
0.10547060889371
-0.267337883373849
-0.107637054646432
2.28468144400291
1.61774815953657
-0.0684485339629654
-0.291018647784827
0.599543763395591
0.0677031704284234
0.582346460084376
-0.462486349202489
1.19841326310338
0.450592800017782
1.37225410158706
0.352620402152054
-0.280735443131916
-0.926739429507074
0.096536220621305
0.21481519866357
0.097947179696401
-0.490075434276274
-2.09685464936629
-1.38856070925891
0.725736958899149
-0.885318805752628
0.354491853249997
-0.196469527720105
-0.0482641890381882
-0.831184890235287
0.762627752041437
-0.665800818099686
-0.438862986462712
0.334531942290476
-0.175711705818598
-0.47240579275043
-1.0481034000307
0.145453774620505
0.0896513236481512
0.505964454878463
-0.0908403251941293
-0.391253576438176
0.0584251559836571
0.708701060749834
-2.51767209611372
-1.89991449929656
-3.52777294301038
1.20277464592457
-0.220171930040698
-0.0232119470139587
-1.53576527641787
1.70015966309165
-4.42728696401131
-1.0347968919936
-2.7702733035917
-1.62133025613371
-0.496692633548772
-2.27890680521389
-0.476479617743838
1.40702847615631
-5.03292930396001
0.999511890032251
1.67319466546466
-1.12077353848953
0.0324452570075788
-2.5711339663033
0.00648084666335544
-8.31524015217614
-0.410757859460407
-0.127280126124036
1.07199170669533
3.36033979806284
1.237888576098
-0.840632230493335
-0.645021924952019
-0.239336475410106
0.151273693519571
-0.112377833441925
0.0197389242193678
-1.31452577449774
0.122353519207184
-3.13342358701963
-0.369487252890402
1.7292936542823
-3.64002916823082
-0.932067186968161
-0.838500870817898
-2.24263087184805
4.18693365094489
-1.39312989733536
-0.623036307377671
0.730542762676681
0.886504887528082
-0.214471663603512
-1.67458280101952
0.459126610914521
-0.283107747034304
0.118593471423276
1.09988785257627
0.86459474865194
0.0559930797161561
-0.3889206746366
1.70267205357591
0.169108975814369
1.99143083886726
0.0903211994952383
0.626243565755042
0.092551405377371
-1.02999907315626
0.137370019752786
-1.94906557555965
-0.718661932865273
-0.0859039605361138
-0.860897310962215
-2.86835005108312
2.6284767444654
-1.11528103736942
-2.43099348201679
-0.573454919427835
-0.759679435445578
-2.56662675090209
-3.54348324406224
0.44056071635076
-1.25555267581748
1.76927061701582
0.370258268955778
-0.325305680831747
0.192776219731598
-0.184939545587712
-0.515192137255558
-0.162516057997632
1.09382405631814
2.08627257835609
-2.03880493696601
-1.00036258900157
-0.641472053660379
-0.570671609263541
-0.703062286510421
-1.3667244436868
-1.04651645845719
1.54206820233901
0.283535824066655
0.894521047431523
-0.0784140644670644
1.78201933606074
-0.898693437506155
-1.15382355473745
-2.79062421824613
0.148937041085103
-0.0697024354403195
2.63793024061617
1.52477638633873
0.164919878490772
-1.55587529998567
1.36221110727358
0.624527745349473
-1.02572102743754
0.569031616778043
-0.267503289234371
0.893694485602635
0.696975616844412
-0.297170352729533
1.17796585778016
-0.135929859764449
0.200730170149219
2.06608185040571
-1.06162363682705
-0.273904722671594
0.014108691027265
-1.00167195143031
0.733309413795618
0.145034505415092
-0.278351026189326
0.780109079124283
2.61191018152606
-1.41654299204234
0.578758506495568
1.16748991039803
0.0732328318847556
0.67233798351323
0.652337243991273
-0.366565525693677
-0.605616452888493
0.0109039535509999
0.509531351047094
-0.75549880737209
-0.0468250417242794
-0.0898997105833623
0.79588257992924
0.674816797939201
-0.22042990959971
-0.361120271257726
1.02233975376224
2.39650857111317
-0.855001267738637
-1.5818058697321
-1.16936416954318
-1.93179304046715
-0.714791120249919
1.03355126295832
0.446517191246673
-0.801901256709238
-0.693596739096574
0.902977028805404
-4.47554921066938
-0.278191458192454
-4.48921789844316
-5.815199782742
1.38120741196003
1.28941154633832
2.16577627313108
-0.47835760045461
-0.408394758094714
1.21850032773494
0.471702073784669
-2.57030085312849
0.93723060734254
-3.39259282570088
1.78513341253224
-1.3467909775234
-0.259307514669796
-1.42224661978902
0.28121656545269
0.325801252442292
-1.87917702192885
2.44795110070572
-0.427190749293921
2.72299193392802
0.266253698079103
-2.80537400631848
-0.744023979990393
-2.84711698065878
0.628447343982289
0.0447776938789728
-0.543801513483171
-1.86569297869596
-1.59071701078632
-0.542881804644499
-1.73314779803047
-1.48646201002608
-0.116791713878721
0.640932129072944
1.67535653009784
-0.587357665995814
-1.72392377150334
-1.25289602434165
-0.315041749949659
1.65253365677519
0.354951519171961
-0.751377715791927
-3.76218648699477
1.53024229302363
-1.15857718223306
-2.58175757055287
-0.886654650067429
-0.243443006367031
-1.35782921478062
-1.50227106993955
-1.96413129700101
-1.00751930444231
1.24535843956752
0.100156641841347
0.0384150913602121
-0.964649574160391
-1.15721254737265
1.61056124055031
-0.990746357156398
-0.511305342666643
0.680111200429692
-0.445686632633927
-1.17383405655559
-0.349704650211478
-2.18825572237442
-0.444659170473619
0.820010734739657
0.529149988651285
0.821306980803964
1.76134300735677
-1.8698301228201
0.264349317699614
-1.40782986537718
0.0931725360216282
-1.64341847603387
-0.834051082335261
-3.27564823652796
0.0553790038700561
2.35907742813183
-0.580085744707137
1.50329144204531
0.263755633891857
2.12663299608228
0.461448924122609
0.0795772427542767
1.02552398736941
-0.258984392819849
-0.456458100209032
-1.44140847310709
-1.8919571388516
-0.943793445678466
1.48589718241056
-1.00279439188828
2.6696770648486
-0.27824396583414
-0.0547439484658898
0.556498831366293
0.310734761379514
-0.0440167513896119
-0.0395128446213563
-0.1379528678095
-1.44072702148802
0.661241069163263
0.274417919629437
-2.35350940817961
-0.411444373434709
-0.125056264962761
3.90552442740221
2.29308084214392
-0.761301974890436
-0.621195503666231
0.278956702548146
0.249245081555289
0.207469592420035
-0.602875085324781
1.09162377566299
-0.0338097871909318
-0.70852866740331
0.0686018191260677
5.54791213247487
-2.97096568340615
-2.44156380211925
0.569898617399887
1.00266269235264
-0.673016195302274
-0.157236929807911
0.446463481920543
0.319440336497041
0.621729339692264
-0.554784405412205
-0.363152292516133
-2.12507618971893
-0.378810220356386
0.0800143032980462
-0.79527894268027
-0.647182776802533
-3.29075847688779
-0.774802162406791
0.313062081140812
-0.711149657699103
-0.0889166654746098
0.515580868715942
-0.697596061404511
-0.0909557262059763
-0.150357676205005
3.46383393024209
-2.74296691615722
-0.0666691402883894
1.79734858755538
-1.69153304916245
-0.0905407277112818
-0.589896455865111
-4.92880672606118
-0.426404771543533
0.436861370163183
1.22860708486698
0.353231745296992
-1.78520172602745
1.66710944024741
-6.12046291489942
0.43546400701141
0.437693564917701
-0.502828651159164
-0.592148534004608
1.68750965705372
0.198102314280966
0.172866712105732
-3.63985000911849
0.95884323371511
2.98646305728792
-0.538094485396547
-0.444306680062596
0.606006194053006
4.70188069449367
-1.27113687055546
0.287499423232351
-0.988594483497862
0.183244311019011
-1.77047129815966
-0.847631150887573
1.18194337332836
-0.803506620023887
-1.00022432267652
0.245899571901212
-0.288603779419179
1.22162222297983
1.30933669164366
0.394523004110848
-1.26773775914289
-1.57328234366943
-0.0586254350588235
-0.100239723522337
0.0317106087347468
-0.33280783211769
-1.26387932484731
0.595599954349749
1.84674508126536
-0.152226350026667
-1.81714452937721
-0.577133566924637
-0.292892412455272
-0.262904789908197
3.23274152803089
0.405118382853406
-0.830790583088398
0.339289627174125
0.34116591152459
1.83165398919451
-2.87416644536579
0.342444346505842
-0.180349629352146
0.0593748551306514
-0.364790543984132
0.227680187785934
-1.3063365388549
-1.03744983809181
0.486765433202849
3.12000442501742
-0.931927545949498
0.413517499224095
0.788219519983338
-0.785869676239935
-0.14529655812648
-0.679818947384555
0.761513452545263
-0.690574726949462
-1.06127237254175
0.0943036717846556
0.755070413774596
0.0311591825698946
-0.0508122288330898
-0.395644771549756
0.129958562165917
0.3303068903129
-0.117411119482661
-1.4612709780745
-1.51906910317091
0.00824319257075153
-0.0088647153714489
0.356838761561443
-0.0361378851830286
-0.290873031011851
0.20429708106439
1.62528401634531
-0.201650131571356
0.913129813423238
0.539123827312843
-0.0368888187117373
0.0657514825448487
0.0690165878077032
-0.0791155222885038
0.219471803011199
2.1476434026733
-0.0814545145982797
0.500763041632638
-1.10541100676421
0.352566985289388
0.975868182806111
-0.24054463935949
0.222378860301705
-0.198352853507519
0.410484659323665
0.079664272924317
0.11167470548578
-0.518706690791345
0.978707363907644
-0.0796522044802402
-0.0929865792301114
-0.311558299085404
0.0301970154117952
1.52397789069158
-1.12635674186822
-0.345654065156352
-0.0333366602590024
0.480234985947679
-1.34798856614939
0.0363110927824478
-0.263036451091813
0.0993601326700877
-0.674544014469705
0.143287246010251
-0.573382588806352
0.373987905704193
0.68090368144294
0.0393858109305669
-0.55298461475149
-0.699253289735987
1.13486613435738
-0.0317745172834225
-0.160784742879831
-1.36239276012859
-0.398413558587796
0.0370424390028587
-0.417103828180894
-0.150246728894235
-0.010241574491865
-1.01201499873213
0.00359468424942027
0.142517461192363
0.716734664832041
1.52518931212081
-0.180281493512555
1.1470821402018
0.359486983809493
0.0162589201745705
-1.3502084521546
0.46929462789311
3.29974837903956
-0.240755035863098
0.974728482013205
-1.02988700283636
-0.176991109378304
-0.441327272988666
2.47776918726749
-1.70063957014071
-1.21831029572321
2.50715996426363
0.231219247329632
-0.272243009927147
-1.15727434460958
0.46366408333623
0.439680751811308
-1.15995454121285
-0.738493636209806
0.268115667407827
-0.317010831319438
0.343540961928843
0.219060359649446
0.907152667319739
0.0408143820331991
-0.9358950239634
-0.00659057033539788
-2.05218613480927
0.319472674267772
-0.242077116023589
-1.34938217597163
-0.0558385256972326
-0.190818639417136
-0.855182510382011
0.115145028910401
-0.444293842773175
-0.0423722151628841
-0.458790368170639
-0.48823641087656
1.47039772713981
-1.43016083663514
1.69158448607073
-0.537259011023572
-2.72491299283253
-1.89262728770894
-0.318561539120244
0.597887515984854
-2.96098109348972
0.374877903500983
-0.44571268695749
-0.365365647362568
0.7753036934108
4.2656358666846
1.72097753341971
2.65548128584336
-0.534682985137955
0.0773958880839325
0.189951203135806
-0.329034111662854
-0.760985360442351
0.579391838906866
2.37399451649023
-0.659497077698703
-0.181809980503431
-1.81381655892955
-0.0141631237706622
-0.341982619723553
0.931583400361837
0.307601437482822
-4.57486781511625
0.266476755823194
-1.7857377122752
-0.424613748372951
0.0920126570200321
-0.160541839324037
-0.0168693780249621
-0.786318907317975
0.890214381160731
0.318653781127166
0.566047068135588
0.214533207219885
-0.455811134749914
-0.449436002361575
0.0291304901477868
-0.800079791667911
-0.780528506118799
0.155028453337872
0.125015513104641
-0.499210601694009
0.487054905820631
-0.0917393769247844
-1.42850331728144
-0.101346314918976
0.886216134487654
0.287580304520822
2.63512734484641
0.341292084812118
1.10758530348592
-0.0939692445282339
-0.147407049554184
2.10250693970869
1.32058798545036
0.381152531404176
-0.726375791938045
0.398196879245617
-1.15941084069784
-1.03914621021789
0.783888091292767
-2.45720876482235
-1.3246639467227
-0.317234977774156
-0.341148708450332
0.329107059323286
0.644125507661855
-1.10246867566303
1.62971549632812
0.204242604015551
-1.31968136480988
-0.117805230272064
1.93139104216465
-1.54685165917095
0.720191171503275
-0.676076370027343
-0.936758517686686
-1.27844960009777
-0.550059670049944
1.02995486159165
0.245829813077327
0.434345317763437
0.674514272342342
-1.346229035292
1.26822532398521
0.927115490752215
1.44682357151504
-4.10031971140852
-1.98092944650536
-1.04169775038188
0.877910992161386
0.716090846243649
-0.445484758475551
-0.271282147826714
-1.06465666503437
0.119374849272596
-0.171318142353679
-0.294269188992537
1.18261593705183
-0.780344355954767
-1.77880285047009
-0.237380224778133
-1.37147435868985
2.57059361715553
-2.07916794774838
-1.32451394871703
-0.532000335978541
-0.892380594628211
-5.11462651109158
-1.37764032385377
-0.446223825333346
-3.72185639654201
0.0204860885376373
0.770313309001088
0.683122170284971
-1.8959976134629
-1.23160345914535
0.489341684179982
-3.41630181159415
-1.39203389001037
0.285176235309171
-0.988917872852151
0.447688649964762
1.18169338115699
-0.0348096404879932
-0.592857444222742
-1.6860691656357
0.394437824497103
0.473809424229993
-2.48063267940998
-1.84101251625723
0.439306890221194
0.066160542208791
-1.05561281043852
-1.74413531805103
-0.831165856275354
-0.386132724294653
-1.43555361403694
-0.909165977904137
-0.623173979691685
-0.392559854081347
-1.18720590113253
1.8930225586838
0.314201184287288
-0.759669843171503
0.0552492859583114
1.93094586292797
-1.97231288786403
0.41486044190925
-0.866468085928988
-3.76867872172382
-0.574680131246944
-1.26757412703578
0.735205189083441
1.07542145562739
-1.49061457368458
3.27740003202455
0.750826117005436
-1.70785617222539
0.250397732562613
1.66842125915424
-1.03734640898698
2.56532167203264
0.489186421621131
-2.38746770921934
-2.1265924940795
-1.1455059606081
0.802893828426677
-0.357626786072492
1.17709158746717
0.216962895673534
0.335584633011723
-0.621099697678365
1.39076975419872
-0.814900508866016
0.606285924596408
-2.13460343335675
1.03152005976855
0.546441707573895
0.319042297556466
-0.260095335752792
-0.0391758904027466
-0.647072551599264
-0.338315283094751
3.65423160119748
1.02231799749437
1.22577126001813
-3.98511544396092
0.521411333822564
0.36698168398185
0.930385255194075
0.0815147342760103
0.913720940356062
-2.26212827926402
0.732265835707134
-0.508742504928687
-1.32538729429333
-0.528783245258194
2.79785230473921
0.334313039487978
-3.55787168962826
-0.418111262434547
-0.595598512002617
0.0901973132455764
3.16786515509761
1.29535806089563
-0.393149237372172
-0.101325519447526
-1.23305288944873
-0.395337150678179
-0.641582592840208
-0.544101167687728
-0.245703524680937
0.144698813369966
0.769740189598104
-0.915505606937179
-0.0511667708719996
-3.14861351759579
1.01048331573218
1.2305369107384
0.734103790439983
-1.45867285571483
0.157952316067965
2.01893058554283
1.73335545087716
0.172336995217304
0.00207232062500978
0.29968842614612
1.55436082420664
0.770366366603638
-2.23817344300824
0.330512703759169
-0.30342323013461
0.29159850271021
0.0785625543721684
1.43330503500814
2.54559753355339
-5.93678102507274
-0.845872114157126
0.183727925068474
-1.11107594714458
0.960528377485025
-0.23954468937365
1.52497597785259
0.445320452937501
-1.7012074132971
-1.96138425972561
-1.79794883352357
0.315320808758773
-1.82577113022639
-6.41390576447369
-0.573360249787327
-2.47759516025323
2.49431963516166
-2.21770276805109
-0.536831041513655
-3.38270861519183
-0.301940041061598
-3.56924290407199
-2.09378870604631
-3.13484127147164
-2.82956109372474
-1.8936584496382
0.0419235925010691
-1.44413426766602
-5.60721209520925
2.65363741468676
-0.0805576543124633
-2.8105587248968
-0.476631406583726
-2.06063259912909
3.34703379537871
1.70438725155579
0.91291537459794
-2.94372126838029
-0.193563939917492
-3.61081738395133
0.018692497756882
0.13690146854421
-5.53050366843923
-0.931615849539611
1.18366977059113
0.18395283394622
-1.54298256981658
3.75574164965263
-2.47446061118771
0.915024604662876
-2.77701016443186
0.331950191875467
1.31527956505272
1.16069151138044
0.0724970884609758
2.90855499693626
1.7946918901589
1.35040441675858
1.38550299166733
0.500433725118566
-1.36688413603685
1.03847920609089
-0.157211087046942
-3.28883006278912
-1.00296066306908
1.26049026136775
1.26016964951746
0.941394479007834
2.2575784475774
-2.02252395014254
-0.417403970969225
-1.19572423925533
-0.161464968820679
1.89622790887341
-2.16625983222995
1.73358562193664
1.13005159568223
-0.19196361024998
-3.37798373456321
3.00024671890592
2.75457512309723
-0.866631455938556
4.09267308513582
1.34038220844265
3.69390263863943
0.936989985680581
1.46938830875878
3.96803545881692
-0.0688277255181669
-2.62187436335121
0.683362699915219
0.277324710868605
2.00451848116303
0.615001678115191
-1.06864853301627
-0.0526272596770367
1.4239861706379
3.65179370431272
0.142710242839175
0.867113119548271
-3.47445036005159
0.478157660604499
2.06093447136734
1.42150589787088
0.0702659165009365
1.92786845438068
-2.99246407285949
1.60138221282989
-0.445502091542294
-1.07747869743754
-1.05566330473692
0.846565477615982
1.08336108751814
-2.35086833145209
-2.07796873725356
2.72671698795807
1.54645201383717
-0.877349351249239
-2.23414138018478
2.07230517332738
0.545983165213541
-1.30633842501406
-1.48364327403731
-3.4970217034846
-1.71071019558794
4.13572790906219
-0.024794192933969
2.22301331410551
-1.70182906851804
3.42437172089806
0.3316542148565
1.56584492253019
-2.07718913897839
3.00521216578421
-0.435447908749913
0.960974518140401
1.50527985243125
-4.02558831638058
-2.11360662259767
-0.122679020777467
-1.64369771852913
1.70272676414946
-2.19177845396145
-0.658542184464387
0.785714911393652
1.74623628715135
0.196684889967028
2.97543725762871
1.27742277568175
1.21075602565872
-0.93761594290073
-1.98212198860327
-0.972167887616188
1.26134619134792
0.53750482081563
0.989444013277138
-0.125167170489179
0.833534218037356
-1.61627878640034
1.68186955139752
-0.418581891262675
-1.57469852029051
1.18924174831109
-2.11612229928979
-0.140776724694541
0.0557025211579717
1.35816814470624
0.468941398575284
1.71962450033336
2.63578722233025
0.30924732218388
-2.88301428287665
-0.19772238250717
0.730952120976714
-0.186169839152606
0.705790617447662
0.441915565535846
-2.50727544439792
-1.71032733600025
0.192983951189854
3.05430108527315
2.47582670718399
-4.42771307078467
2.6367313026594
2.29750017765701
2.01283735647886
0.434916341637755
-3.96121557299913
-1.06276694593772
-1.11504099743552
-0.871221791740932
2.40114907683775
-1.31610341429545
0.0947001842890655
1.49555950089467
1.07474967291477
0.826593495051607
-0.577040414127961
0.190322381775802
0.0180538460012418
1.25330903834768
-0.889994621744946
0.0052482357915955
0.476665024877641
-0.718472029531734
-0.770166605666346
2.79333884984154
-0.397072647981646
1.83591026358062
2.7025656373919
-0.419489827729654
1.15905086690026
-1.10070994196903
-1.38917397659711
-0.0208631847330425
0.748052177995673
-1.28867372154571
0.383237249593786
0.109435659731388
-1.45974409126068
-0.0954544667466113
-2.06295517747746
0.762713863279313
-0.277538732863635
-3.91783174864347
-0.787897983696411
-0.124676796336089
-0.22539714848524
-2.53168973798412
0.88345564932845
2.13185750499705
-0.0993850043373918
4.57973453691137
0.355255173871233
-1.83587045364561
-1.39468496700538
0.516217738370666
3.72302135873619
1.55659046193311
-0.827863972225296
0.484611599562864
-2.16867553147669
1.14041505612271
-0.820505417637509
-1.7937724235671
-1.11965325752897
0.150470381832223
3.32138100203629
0.0820207718891298
-0.132371011936073
-0.922910835401401
-2.23959248825783
0.412361958874309
-1.4886793783126
0.372614292101433
3.16959484810167
1.93762670243102
-1.33002373750608
-0.599075684841774
-0.819410158708442
-2.28581817354333
1.1308168648118
0.977016957530896
-3.23810652774463
-0.59489682872828
0.018503008762623
1.12569142015562
-0.760162939757479
-0.59030779666638
2.28659422916457
-0.922940620272253
0.00969383069269119
-0.841589546168586
0.834015842550078
-2.9620136012407
1.03248977928446
1.2834556988775
-0.907435327493283
-1.04279753628977
0.0118497034683369
1.32790237143451
2.10366439070434
0.238702099266898
-0.0206665364594986
-1.74153488074279
0.671796778390729
0.758707185086614
-1.78961653879099
-0.915263143843411
-0.0431437324785399
-0.212660591744868
1.49835488008768
-2.36683618001551
-1.14348597105555
0.270621791788029
0.37079524112825
0.13357990260281
1.51226699679151
1.23802663344853
-0.326182841413777
-0.269612935723783
-1.12072062924338
0.0544846691285257
-1.5920040130918
-1.35102674611735
0.611793936215809
-1.49562518089871
-0.76007390212199
1.03205643576387
-2.99580805072403
2.09698290693949
-0.656465949150037
-0.850962953450267
1.65722758529699
-0.0943483696056548
-0.459872391922472
0.789800527261166
0.487888362303908
-0.89811081547007
2.12667389323854
1.5002199230733
-1.3585716320988
0.958669386276833
-0.679671394153061
5.29797912418774
0.00666568330979536
0.801463091169952
-1.20418898428496
0.928716750385984
-0.620208447276877
-0.0851352085098683
-2.70774144733643
3.02713230825571
-1.21604533674535
-4.19347626054188
0.711729026441395
0.610473773054095
2.50929525845763
-1.33590229358153
0.156815842792737
-0.609355258135308
-1.27556755121343
0.704033109506677
0.75957780874304
-0.948708625024565
0.926416667303552
1.20593857570638
3.52914928146912
-0.858048515697046
-0.945502912442355
-0.697226918317631
-0.354022296979751
-0.582668671727911
0.81047729692734
-0.958271313287649
1.7952062441548
0.199760382757328
-1.13295644776875
-0.448827511692842
-1.46422825577738
-3.06526852477407
-0.0841890534162773
-0.41391290820883
0.804327839931907
0.778211858030479
1.13473955068914
-0.739956165164148
-1.23620331424117
0.30288347371735
-0.991600812588779
-1.35877844742261
0.661208836814857
0.847804890908931
0.374753354655442
0.608372486153937
0.417325268498573
-0.897142268535359
-0.95658096915067
-1.1538167927918
0.421452876108237
0.489383220868911
0.906993873322993
0.717579609885632
0.564436416701847
-1.29112214777874
-1.29707904400089
-0.50665470465837
2.07527140089015
0.157898078048654
-0.908297233314054
-0.96099372970649
0.411199789550347
0.914501878012064
-1.23562214155438
0.229107582895566
0.364011057406563
-0.143655316443731
1.51439741011169
-0.268112785075905
0.624849109636908
0.250898844687984
-0.592426157672336
-0.523698726506228
0.802836606418006
-0.586412270084984
-1.00310221681468
0.572832019626697
0.618436514085405
-0.3658358828148
0.711098364474921
0.0378009117607171
0.224570496965538
0.0694682353127376
-1.24296820757431
0.481808947901875
1.31583289848052
0.340165975057677
-0.63533098263718
1.85643514293982
-0.207756201018324
0.0364284773133754
0.406025959642443
-0.252905204788863
-0.318451337900232
-0.711998170507855
1.17421220572606
-0.169646222777847
0.0812970039635783
-0.338380248868917
-0.457432031452496
-0.523765480167952
-0.090099000158071
2.54936938738973
1.01339944189707
0.190837335599999
0.332291303537884
0.419993829003697
0.267929469373514
-0.137908408370394
-0.631017267237386
0.219732063846864
0.0532690688250079
-0.527991417116682
0.373221945795726
-0.381648816903853
0.0488118403476574
-0.123290428688711
-0.580629543431332
-0.864468588166982
0.015886188278309
-1.34318470106099
-0.825763369443313
0.317993883143701
-0.523589716467774
0.902854801623176
-1.83088565666283
-1.03803902973949
0.257630566487313
-0.616285629938825
-0.599549437197711
4.09334357604683
0.596742497865134
0.741301972330184
3.45947782443583
0.233966600774546
0.255451902282433
1.04131874089311
-0.374714327960539
-1.67947123745423
0.0944704891839021
-0.339639672579249
-1.07881769682932
0.884269974684746
0.32281027838923
1.75093068405268
-1.05178618058905
-0.207226942813227
0.24180800106853
0.93882539892296
-1.0236466906479
-0.0596102889738631
-1.15243820826317
1.63936807013503
-0.311891913323995
1.7355652451272
0.774817115531673
-0.57264721228091
1.13899625120884
-0.363121449208481
-0.132413941741782
-1.28455068447813
0.0713477442754776
-0.344192671474356
0.427698987511909
0.197832043992602
-0.146395761033604
1.03928616213059
0.37317541782146
-0.127021723765916
-1.4390211131426
2.45814283177787
1.24571760006537
-0.218438628840738
-0.633589716115937
1.89609520884478
1.32340954778182
-0.736020667764916
1.37585242301655
0.231441082108067
-0.459796596158394
-0.932321337415119
-0.851478889731692
-1.38300940155581
-0.0233640814614152
0.308695019748522
0.0853988065436187
0.983503113974599
0.707516836941358
0.143415116253034
1.40325742583167
-0.877701935516351
0.106201145643945
0.321740118234636
-1.74657991006148
1.41920307477661
1.0061244906376
0.0777992351151597
-1.54379355874393
-0.499691348716124
1.67574742364714
1.7300024972088
-1.20885819179032
-0.131405763284082
1.75061092599346
-1.13980592467388
-0.540476697005119
0.132174656834045
0.840861836125832
-0.082178587652523
-0.226801488231527
1.3125890167197
-1.76414510101522
1.29682489674557
0.249380166683142
-0.840661474408945
-0.125529417246988
0.776573330803579
-0.967910364483765
0.0506073456102714
0.666301721218768
-0.566682540762973
-0.556676245505992
0.319811126211455
-0.956189497355526
-0.661278521097032
-1.76732387431602
-1.10101782043028
-0.730623073050371
0.682599821249728
0.231039710077813
-0.122078767144312
0.783771225886975
-0.850513607844752
0.731543014191994
-0.200745861298864
-1.40147099080512
0.220838707441693
0.656786182116006
-0.750347869644908
-0.765739179465675
1.30776255192212
-0.355077571624055
0.281380749173314
0.243743148901428
-1.12020657510516
-1.27687677712534
0.179685612459764
-0.655615047922867
0.487767858295269
-0.790541594387432
-1.91398681672093
-0.0679433539024429
0.288556192373487
0.416713251407878
-0.2879564768375
-0.188666492948043
0.298566390826751
0.816229556182635
0.619927589296019
-1.07690007525438
0.274106610664838
-0.293182955572919
-0.272271496530446
0.578069461574364
0.118661777389098
0.398391891788786
0.413134260250283
-0.276416235383437
0.140837308688966
-2.23114475433615
2.15640118470587
-0.828940098512412
-0.36475772517121
-2.43773686700842
-2.16189434290564
-3.22204493068895
-1.31054772845102
3.03188667923256
0.869544249338635
-2.66454204283561
-1.56783035236191
-0.226060884901517
-0.0823311463228796
4.38367431365582
0.0441859108717507
-1.26819992264375
-1.22473240369913
0.0982268803463327
-1.63817897960205
-0.703613909927294
-2.3853247867827
0.100322228742403
1.74703678056064
0.464323386108171
-0.573199432556824
0.227161175956235
0.83758007429403
-1.63791690808577
1.03114508122656
1.80737707877658
-0.928072274399948
-1.0084076301392
3.68248011507019
-0.207486201080545
-1.37207902063113
-4.10539579278898
0.216866809351446
3.09310188112463
0.565674599408325
-0.095827262690183
-0.635582973077253
-2.05847608798926
3.94711267713178
1.22699246278378
-1.06127633002254
-0.523314963878384
1.12818977023812
1.85228802417511
-0.334548855769787
-0.716675675028682
0.84440472098718
0.384993481803556
-0.0801557699991176
-1.37280469310454
-0.494768754139897
2.22022698992021
-0.773433980794166
-0.219223792927051
0.370891392353246
-1.27189828628651
-0.145606959039079
-0.0520698308467229
-0.447092718448026
0.965560254442622
-0.165217705434709
-0.189938512932454
0.510884107581848
1.43879271572014
-0.377228626616916
0.392612209936864
1.08234821312742
-0.705187205214217
0.391553697253462
-0.172015046795308
-1.02632765537785
0.191788883022896
0.229568674333577
-0.658495184039923
1.06569769017073
-0.486533557580107
-0.817168682501984
1.50482802439619
-0.343818854605032
-1.50106898903147
-0.156056763922877
1.64273006263109
-0.0763808115687175
-2.5764755351608
-0.451662987874549
-1.31973864115774
-0.181595107378411
-0.0439803349512957
-0.337497027387937
-0.912900183527923
-0.263492245494811
0.163818793053672
0.342739054397726
0.938531166223743
1.39588817575598
1.28543811918465
0.647183478608683
1.70571032591108
-0.42281243243484
3.00918487688394
-0.365378911971383
-1.52713331716819
-0.683014899762468
-1.08309437115825
0.794007273500947
4.45534755219681
-0.126088709254572
-0.632551151255191
0.208153394195064
-1.41017218605863
-0.517565292025233
1.67515301933968
-1.63623361801308
-0.459743630279734
-2.62024600032802
0.861338177721823
-1.72562572255009
0.252690709645284
-0.0418723831430058
-0.511767089840807
1.63616705995384
-1.0054160320967
-0.415342570174737
-0.00416176026915797
0.225434859035388
0.653388937129503
0.0173576185416327
-0.589285242806905
-0.27999485900619
0.50327997667305
2.82476121801311
-0.420988730603277
-0.828192204624883
-1.33668344628507
-0.548860232708502
-0.974646453501672
0.847496837870234
-0.0599565656843176
-2.46000825947507
0.959122602991779
0.495164830099601
0.0141346498434234
1.43835050324613
-0.889866208945869
-0.447671393047162
-0.191786011864798
-1.12906689586723
1.07748322027
-0.0101904271583044
1.68286407723118
-1.86323715874136
0.450471059037114
0.221152015099392
0.279998895899481
0.606814607517442
-1.5338246700087
1.28833293911689
0.269367496367639
0.798329313701302
-1.07990096824634
0.0707161487365616
0.958667572292982
-1.88610313439045
1.75305005852465
-2.22016916141567
-0.833635488007433
-0.934923948539036
0.0861585385389594
1.02980311437516
0.428772242634152
1.58151892828152
-1.52876939246383
-0.0697513374557212
1.361898537149
1.28532453444501
1.26039314946748
-0.947506571393362
-0.874434358137124
0.500957394901939
0.725380641113456
-3.12710918748757
1.94361436026437
-0.620405622186374
-0.254387230130646
-0.130498949673153
-0.307330055116444
-1.01862114874447
-1.31017785179721
1.32915813603294
0.668066001523968
-0.151216474522132
0.330111186111396
1.61581061278867
0.693877108168178
-0.565796540073658
0.395951378917699
0.0510664057437794
-0.736084633045726
0.286471084627885
-2.28645562169257
-0.275834590105545
-0.766397871889105
-1.45466608770026
0.0435692704956331
0.489244997669577
-1.18327172987292
-1.74033202779292
0.0913821070257861
-0.27711924917411
3.24197655419701
-0.105263582843461
-0.940185116133819
2.11475726675034
1.85168107027992
-1.35501078384713
1.4663051403021
1.16517091530462
0.252232363880357
0.471839022670214
0.392493197669191
0.508067017199312
-0.217589037746612
-0.379163275458459
-1.73122221139135
1.48653191408496
-0.021982446872331
-0.395996196595799
1.09387697285526
1.87244179982338
0.394820184009766
-0.992046039302414
0.24910193662677
0.879856071405087
-2.46989716978053
0.563554926908091
1.38666044601116
-0.347616812154564
-0.599710773024627
2.12425677669053
-0.107063829986561
-0.232992591746997
-0.557584316714011
-2.07937896259874
1.11630401593994
1.16614123126612
0.932068571991387
-0.115984598982386
-1.04144237912987
-0.519059256347023
1.4147257980726
0.555056993478354
1.28408246563816
0.0486784599048832
0.558955963042588
-0.17043260121039
2.94952617435546
-0.162468012205596
-1.34339253580813
-0.840905796853224
-2.32364155460326
-0.147009817279576
-0.672147228547649
-0.542796444711772
-1.10561534189582
-0.277484346592236
-0.739149550279955
-2.4074072106492
1.05704887873178
0.39191151158265
-1.26330823049997
1.0219254134909
-0.333165905587678
0.0959105486357842
-0.277141560219777
-0.880205491842625
0.126218869768505
1.06883119665909
-0.530346656123847
-0.992063856769322
-0.901678838091892
2.91610525615609
0.505317736063414
0.208863404779746
0.32179101234675
-0.0147045888540487
-0.142801083981901
0.58104292898586
-1.06665631054482
-0.434031673443717
-0.0364209142948864
1.37372692126333
-0.257263963278313
0.987035171954023
1.26589218365349
-0.83262969837931
0.458537452812995
-1.97338805898579
-0.0372941685084802
0.0857181300910733
3.02779491713581
-0.355484809411876
1.71767800725808
-0.337028395660892
-0.682466698845931
-0.206104282565081
-0.172631465698042
3.68360526705663
1.01405566295138
0.0448996157453224
0.385938181618467
0.34939350076359
0.604928277392971
-1.58665357514396
-0.25376092442843
2.39330120952046
1.13477698072605
1.98537366171767
-1.74949322137896
-1.16085103789364
-2.33261367811689
0.547614113071694
-0.735626685435383
0.0401942103527975
1.09264768703705
-1.83217811296949
-0.0146920140561168
0.46106442947318
-1.50785619246538
2.59115212804613
-0.442614980084268
-1.83895947312047
1.2043102272683
-1.11938486266843
0.41159684426697
-0.0677583943691177
-1.10521429876646
0.0502517542197447
-1.24192047713391
1.22077161023366
0.952816804232253
-0.804335801287267
0.795342754318849
-0.31237845041315
0.735751029886417
-1.31011792973498
-1.19855562826702
0.390377949815702
1.08567348333884
1.08963817342813
-0.730033052240643
0.277892411061469
-0.771094399052751
0.481544982065675
0.267574105937472
0.586719210183843
-0.570645524690783
-0.984172150281326
0.631091860304835
0.0866699588671033
0.9068281762326
-0.685867223442032
-0.0728166847741571
-1.58402767338656
1.31724024721605
-0.949816793525302
0.0395356230432187
0.753357339245855
-0.264288700905704
-1.19213364028224
-0.638002865811564
-0.120217969735121
-1.14001988859772
-0.553213790513234
-0.492877371707834
0.23612017240457
1.57477757775919
0.281913276832249
1.38331627204454
-2.1124775999042
0.556507240627509
-3.05757091898962
-0.542786986474566
0.873889437646837
-0.663921184514919
-0.11381780398216
0.247807355697629
-0.0704642374916865
-0.509060623572457
-0.021929864015829
1.50889818247485
-0.337072124599451
0.244476964820216
-0.226639176694838
0.333259266799987
1.1912089510924
0.186408685449002
1.15426986675117
-0.20771015441641
-0.0900436589685917
-0.660604711036456
-1.26298540572903
2.57064865292665
0.835781701876216
1.37934573725474
-0.609126515313683
0.413548986153388
-0.183300541192763
0.481277350680517
-0.679283115460976
-0.707145176735568
-0.0156906148983241
0.805178621120831
-1.34609317329931
0.451996098805858
0.623609438392854
-1.41573320912545
-2.62923827659382
0.231425453237984
0.163821909418558
-0.630039658060833
-1.32813186563407
-0.862735134315064
0.380305595189229
0.629403742840662
-1.89751397993966
-0.935145051899386
-0.527442741973635
-1.39510051856853
0.715355499993262
0.259215104476568
1.08405183306245
0.452945231611505
-1.37372722000814
0.264205129413189
0.469970712788693
0.594269774095016
-0.170441995198842
-1.83659733255358
0.905948363477101
-0.799866711708208
0.616763685284471
0.0518093991609602
-0.0664215660336867
0.379903009621521
-1.640713767728
-0.621817953546801
-2.49570422007932
1.40842173958281
-1.21718699144023
-1.20403094729663
0.533656059772756
1.56092239873537
-0.815234352236446
0.924934407510268
0.0946316615558826
-2.75780635767524
1.09210020044339
0.376869197262171
0.392698117189322
-1.0158173956523
0.204990880702879
0.711946173245416
0.813610566030896
-0.132814573458589
2.76875768715325
-0.44768681522531
-3.46330141718828
-0.347048579757587
-0.0497930974240262
-0.760118048404114
0.111155354373657
-3.01729897355841
-1.5163389472842
0.616388305204716
0.608879684560942
-1.51726504049833
-3.92968599999039
-2.13016243405287
-0.972368025755774
2.29231783547669
-3.51973227388745
3.17037355517747
-0.502735820198289
-0.824740610794238
0.74110255794011
1.14957152205178
-0.597404064108966
-1.00355206851829
-0.572821836357768
0.0671366124655573
-0.462089246446742
0.439124491929207
-0.424632747955504
1.81002825965266
-1.36454855358996
-0.171865510458873
0.730209760246722
-0.0532367603342037
-0.050683236125374
-0.180232573884188
-0.312407097133519
-2.60386290950776
-0.0577251285802013
1.8172841471583
-0.129524878198982
0.85722055906017
2.28978992407246
0.289800222862323
-0.672182361951556
0.725327401067359
0.36643058987951
0.4067256846662
-0.22489273620787
0.826680055780065
2.36295571648806
-0.952411126181489
2.71910807242349
-0.66847536721428
0.777152893994755
0.50531364956477
-0.440525002052251
0.470608517401422
0.0318773799712177
1.41895146852312
-0.977364734171616
-1.35694751303903
-1.39913833120217
1.10820174363707
2.14005891154822
-2.14086713238408
2.07023580020597
-2.23856865430989
0.332251567602806
-0.796608819627516
0.879713068261638
-0.300780350527745
-0.225950811157775
-0.228152948211796
-2.04858069614408
-0.000518208656071073
0.102821350943553
-0.938359510085529
0.473109468069229
2.43051377851853
0.89628321875008
0.339468691242123
2.15995300525996
1.00758526005264
-0.309823849112141
1.12992316596638
-0.642673971283584
-0.184936689214718
-1.08782557845689
-0.547836717859142
-0.434436297765529
2.35169760291371
-1.93207726680234
-0.116919515036706
0.859547625957652
0.207439076798136
-0.119668419009156
0.177572352506438
-0.343729500925272
-0.0181498450054244
-0.830901123522037
0.745460366934968
-3.30838557799761
2.03230138841267
0.49282095511622
-1.76159049014854
-0.681233206396209
0.887768209706495
-1.12389469467296
-0.731642819993173
0.174983826300423
-0.301174645433329
1.9660392137624
-0.643082826052194
-1.14493199783009
-0.385112614063842
0.518649852476173
-0.554604508776965
-0.77416180059008
1.01267314053864
-0.708175441760072
-0.0601880371949351
-0.286485466733764
-0.139623049359243
0.551346111827929
0.0149270747445382
0.301791595564683
0.349393475606706
-0.0592903363160428
-1.83364509337357
0.695780666875768
1.26805388337588
-2.09441480091855
0.433419553186537
-0.160169028269435
0.0642227063839543
1.90535627580637
1.44617998142114
-0.877028750404369
0.212290714062342
-0.967414036437746
-1.28975042289886
-0.746504677172989
-0.335670108468506
-0.95348262383182
-3.75519842599233
-0.607528078909813
-0.411633309797706
-0.0819815417217909
-0.665136679198816
0.0583685251365307
-0.755276105775314
0.623475895801792
-1.96470281410937
0.0656998890686245
0.00490694893083481
-1.30071829144009
-2.66985901779807
0.556369953182651
0.0610399899729191
-1.74492062170839
-0.420804889737296
2.01808611373498
0.544573012668817
1.26354198113008
-1.5679255744056
-0.780469219899007
0.818049086069159
0.957288426972951
0.92748774576212
-0.246732955818074
0.746421968793248
-0.303870976839908
-1.82556189106695
0.439743217485803
-0.0906269471189932
0.44920139085985
-0.125636171532768
-1.12768682576492
1.20224594633206
-0.657300402298646
0.453860769603878
-0.54444279800636
-0.629033532355009
-0.636570369499574
-0.818124399778311
-0.870236411656822
-0.441170414665704
-0.334789107233331
2.23004999486426
0.201535280838967
0.0345712211833366
2.22959293948124
1.0722456623789
0.574175806702502
0.13716110207909
0.221200646768222
-1.11590608086401
2.07348138627254
0.673592704571733
-1.33929776344986
0.569974976452217
4.16607634159186
0.71580814276599
0.553601379779414
0.466360524104537
-0.55735513325714
0.674739114203181
0.735951412516584
-1.20535857245468
1.3686745580727
-0.0467032474001298
-3.76848797916497
0.205179917173521
2.24961805632532
1.87661691305634
0.49632053067661
0.150730005165275
-0.163431641059511
0.707735118883854
0.277926251451239
2.83037606670131
0.464820107991996
-0.684384861309326
0.0594924642324772
-0.0781210942541033
-0.311735494265358
-1.11641375826111
0.398778545718581
0.75156422486867
0.135798689026448
-1.4498034069012
3.42151160173461
-0.110038732487312
-0.311696521390279
0.455470999887522
1.57546371171435
-0.616478018568947
0.0855566732922947
-0.713903261549226
-1.05092036928386
0.528750490325432
-0.124053535413466
-0.175099898993393
0.332546529458094
3.58603479130234
-0.078684934614333
0.467184860368101
-1.62845014401973
-1.26315501196366
3.31712721050899
0.514882317926051
-3.22881282318516
0.202578641678728
0.558828844382376
0.169871078675062
2.53469408819322
0.151724282010287
-0.766339494743915
0.842602211471273
1.53246815907263
0.120807217965256
0.128056643897207
-1.10308692762795
-1.63875877270356
0.705582674386448
-0.737726790232745
1.37118728826043
-2.00814132402314
-0.187516592534116
0.392171600168032
-1.88953032157943
-1.02088406822401
0.187755064353332
0.51459937501295
-0.143550089657705
0.633789729316923
-0.0441750119688803
-1.4218140476876
-0.518336721574032
-0.824223830779469
-1.06721492482618
1.51344499724463
0.300640742043646
-0.21572595328976
0.668210853222521
-0.317204072265351
-0.171553444589211
-0.170226971149814
0.731640138906896
-0.448311943141718
-1.40061640939364
-0.731785286607858
0.621391057017783
-0.496202324957647
-1.29694652515847
-0.484292935946854
-1.02965397722915
-1.89924769043057
-0.896661148418526
1.40416947229262
0.12194256993127
-2.01568868330568
0.438674116206154
-0.672155904848825
-0.125328791306861
-1.30748836236058
2.63936702135723
-0.548058641348955
-0.332271325559204
0.875627222012642
0.458246111802652
1.14349317420877
-0.457560141640608
0.27827991464259
-0.422912799486707
-1.97506381276136
0.0341138173241151
-1.59371833799745
-1.46838084453673
0.0554986183115822
1.17766081764929
-0.464528505979334
0.751697681754701
-1.99757546087392
0.199895812450472
0.331397551821649
0.732799235179892
-0.0228936774914104
0.0509424046951403
-0.444661653956025
0.803220385752737
-2.48344705515109
-0.116936919709973
0.016807643723342
0.682355121821863
0.0785640704318944
0.465720706171446
-0.20237437924112
1.88866118581321
0.652927523283156
0.306099569758917
-0.668246781483272
-0.0427386156676334
-0.203323748697167
-2.06399813743901
-0.288356914955337
0.879292633282655
1.09597911009023
1.42468944963714
1.90371595871844
0.270597118902131
0.677355164924738
0.236038972350082
-0.466381570152826
-0.333788221963831
1.9240714207282
-0.138776877622549
0.334951965172844
0.289790767289664
-0.935869518245524
-0.509694816803354
0.953426239917209
0.224154626044593
-1.14321138829158
0.715804573563739
-0.974311128827126
1.56422220699553
1.05151029432715
0.446724266429072
0.230555896671606
-0.631436835321585
0.440066914130023
1.70038569635864
1.03900218518342
0.330921724708426
-0.383179115833839
0.48156873267014
0.0554157791330607
-0.74851408781102
0.609360820967565
-0.336283542061704
1.33535390223667
-0.195939119056164
0.258790205009403
-1.4240602382204
0.0157407540554673
-0.516378896964604
-0.625608888502304
-0.823656908660372
-1.13967439611442
-0.474215612387076
2.23216209156473
0.0452657608228327
-1.38658052250692
2.46968452985091
-0.273172239746274
-0.521426810060848
-1.27613579304036
-0.0959602039897424
0.461187255475328
1.9755007438403
-1.72152891228783
-0.691001080898288
0.67020052188478
-0.989424415497572
2.08425927539927
0.371266209036242
-0.389275653546687
0.477167692093128
0.397693772092261
0.0419905743536789
-0.618509624541688
-1.14696902975404
0.955454782535932
0.671532484179216
1.94135919652889
-0.680375221534307
-0.080993200125863
-1.47728747305401
0.426090752275985
0.439427095358926
-0.0757382738391614
-0.980670728370042
-1.28161101240686
-0.194316952452245
0.686509395875161
-0.349045527582549
-0.826882499093263
1.95012484613045
0.0200571957064543
0.758132106446059
-0.220495338166147
-1.55377191684492
-0.751637321338469
0.221871843794271
0.994227817469373
-1.76358034591734
-0.649654484287103
-1.02648541268992
0.993702883568152
-0.502040081344058
4.21527951497531
1.84579771897909
-0.836892746685206
1.32558351608966
0.0899683315733556
-1.1144321721351
1.2084195640738
1.6611666860621
-3.27535391256292
0.249048468417493
0.10921086512653
-0.232503504834779
-0.304491704993251
-0.541605350076659
1.78425700418206
-2.0153722308271
-0.620720509984336
0.940157039884791
0.297622581269432
0.108181228658216
-0.517199205715967
0.924563351897481
0.530128922585101
-0.176252418771065
0.741647675856326
0.269009062402862
-0.376171302464657
0.627455352005613
0.916171115564158
-0.689091643959005
-0.0275442713889011
-1.2034656385283
1.5948071353923
-0.0488808145409862
-0.237738689534241
-0.32113918955091
0.769155377385976
0.298308738784564
-0.71070994894108
-1.12588062483876
2.30800758501176
0.97612029453373
0.349016387927805
-1.12297169685782
1.00095155852377
0.842881393211322
-1.32827300859284
2.81484939609106
1.12987844153746
-0.198294058692844
-1.04934001451999
-0.944801400814909
-0.642832883079131
2.57340791551834
-1.06012837125014
-0.0655223980368193
-0.498689734789588
0.205734925873468
1.01771711351178
1.85846959170701
-1.22895710848504
-0.276489582035598
0.918258386506833
-1.01527621432509
1.50731473130846
0.607453223596963
0.900244879724331
-2.17822646548491
-0.408956346041681
1.02348572317531
2.4840817518
-2.13377253140055
-0.26323843856825
0.701788156747352
0.558678695109973
0.0426793008837178
0.129049556127357
0.333455987531565
0.405561932930859
1.09181819409158
-0.5299624508185
-0.717291751330523
-0.0934977027250901
0.656593914735619
-0.248303029260315
-0.114631550237351
2.10141261421385
-1.17930967724749
0.273528020425433
-0.0869230790827209
-1.74344877610628
0.233607112639611
-0.319015375592076
-1.04096076789475
0.134109696704764
-1.56503385790643
-0.94553157565184
-0.568095049107204
-0.753313276789819
-0.236420230705878
-0.149229970329344
-0.678296029414964
-0.324655758650202
0.0304016624118485
0.582346001616802
-0.127924251023372
0.686922627858143
-0.0680160187623807
-0.0881677244955835
-1.08331354657017
1.43615790563544
-0.363458936705613
0.5980297999833
0.311519122918685
-1.10664369811983
0.192257031168742
-0.174015546150024
-0.428256404101642
0.605220517941813
-0.0916379053125478
-1.80255452857127
-0.922612813613311
1.4538937722675
1.31815383977633
-0.754711386316616
-0.23095619449387
0.32488523925664
0.498304646601436
-0.410689925104124
-0.970578770390779
-0.586132854765865
-0.404109120029485
0.32857649801317
0.43974653732293
0.159057681268808
-0.0823997819121148
0.0347616600795712
-0.153373841506579
0.360529157546341
-0.204699783345682
-1.64064183439788
-0.365872431121167
-0.467965047332842
-0.279938271288356
-0.248722696202713
0.0571259895950439
-1.25636953301572
3.24844452630771
-0.0497721127237024
0.351520699488022
-1.81208117861919
-0.718357520753135
-0.599020594573658
0.221132766920196
0.569557334256103
-0.286715944532633
-1.55208624375435
0.411102623057189
-0.102228028427437
-0.720778613913586
-0.447529168365172
0.454959447872368
1.30109115555879
-0.30380656621147
3.95112134020547
-0.620213438906492
-0.582857434330391
-0.129531258079251
1.60416573483149
0.185752960143675
0.908187155005731
-0.354901291913806
0.679611261845716
0.702054183123704
-0.0383680457490567
-3.07130317433241
0.897706673404713
1.57649710660479
0.710863012307156
-0.474712478512417
0.731696478280303
-1.30030224507275
1.18774405120608
-0.302223545939317
0.025146183255194
-0.814492967792629
-0.675479791739586
1.470747501161
-0.36561194675845
-1.10307810562338
2.04303138622366
2.13234344338538
0.974060554926717
-2.22378216637945
-1.2989216882604
-1.26125135526507
-0.8857622054595
-1.00645893100833
0.941070226535001
-1.04835400924028
0.0695741004500289
0.645447137729344
-0.471967287140588
3.89884443824705
-0.623526632285425
0.605157557843153
2.17344884394853
0.17070900572577
-2.33732195636439
0.0108489508029052
-1.8752283331511
0.429373636277052
0.972272496711415
0.452723533633857
-0.571965177614938
-0.0700010765314381
-0.145891965994841
-2.33270755495672
-0.308692920336156
0.263877544842634
-3.20402512059126
0.503032665081353
2.04686647227423
-2.09428989338454
1.95800535849079
0.576711720737533
-1.74630074014326
-0.984689232194601
0.00414186699836925
-0.544664282479346
0.022468028786468
1.90365146841639
-0.0579801119576038
0.132131050227731
-0.747188054902268
0.163404712600135
0.846597687215381
-0.661432405976148
0.622186852823301
0.29625421349443
0.594279396548552
0.160571886432276
-0.712648688044119
1.73361577539271
-1.83431544382546
-1.3488610451268
-0.536429630983938
-0.36273492605417
-0.676396790985966
2.21425933591072
-0.167551399412856
-0.939226260110085
-0.281882603629892
-0.494529256573736
-0.197457071670071
0.131134505565712
-0.846682420408886
-0.613392104417461
-2.39360259389903
0.806159647900371
-1.47231558879761
-0.77295265649252
-0.149014683304895
-0.167559097957999
-1.8620920617922
-0.447470626286092
0.522696152320122
0.228200238354365
0.555427002005594
-0.839848028229144
-0.0880497683587708
-0.540385691457194
0.462148161162279
0.283487000552816
0.623894155678777
-0.208488882671946
0.847330888074361
-0.532993208406472
-0.766307872138955
-1.86856584584647
0.253905284716726
-1.42421618331343
1.69640719457242
1.18537212428298
0.00182666376578735
1.37921582348191
0.957605062259581
0.847182798530808
-0.0690062113843475
0.962920250153041
-2.34132319870016
-0.636991847814137
-0.603375754523242
-0.426386489512463
-0.0975064759353718
0.400880140874736
-0.702132138761827
-0.613349130593151
-0.156196370755756
-1.27980004207427
0.0331483445179954
0.631474993194939
-1.05702737265157
-4.10673289329124
0.393610699329539
-0.528176398085488
1.47648017222757
0.170204398768524
-0.997830600548509
0.155445274755572
-3.88320929971788
-0.511300467215446
0.468790519064715
0.829741290055319
1.86869854172958
0.242890094716097
0.366658941836402
1.53754404167706
-0.323743507774408
-0.455613740709651
2.05075429075153
-1.85494999002726
1.09386674572133
0.242410095513592
-0.0342614720674838
1.29569810947691
0.684325130179796
-1.46028693316026
-0.842568117199465
-1.56278971834535
-0.161292637095841
0.854384255630172
-0.430899385121654
-0.387025492617619
-0.297461784591717
0.961065374950131
-0.802484185673383
2.10242409716967
-1.15468962439319
0.312939542184293
3.02610201516302
2.13237380674683
1.44271287000602
-1.73270517643751
-2.15610773184957
1.08704180610671
0.758852457277945
0.46830322419692
0.731298221091385
2.102468894582
-0.576477218875513
-0.879885097796111
-0.493036695642709
5.17768670174444
-0.526601484161061
-0.0622925726616841
1.79383633014268
1.41794075543488
-2.83263857409984
-0.877702484058739
2.28415285220967
-0.232310245028356
1.40266628455496
0.892749214798436
1.33320831346689
-1.51798750519248
0.955660693237994
-1.29644921391045
2.48527765258508
1.77692225394343
-2.61601518935321
-0.0886662437248475
0.911643405304573
-0.574075199645772
0.384064423412683
0.141175786579412
-1.31242313021288
-0.325978661581356
-0.0686719175296441
1.78416803379464
0.386284832319669
-1.85959844958274
1.52291648094906
0.0830607081076955
-0.998691337206032
0.156720664202044
0.564587807601444
-1.22392547111943
0.300945196503912
-0.39532767638863
-0.241875781437285
-1.15375100429268
0.00051848175104723
1.89405661678782
0.137940155373622
-0.642162983514438
0.0163056184077593
-0.364979956685007
-0.808819332093371
1.21452231021857
-0.029244113139553
-1.50786909010534
0.591972500029132
-1.03503627944525
-0.0433143984581788
1.23217069090264
-0.63659694408213
-0.699627063255212
-0.671438477603697
0.480543426318883
-0.858234210911275
1.94376860126834
1.39619861706433
-0.610123594672102
-0.828980718691437
-0.254685169673705
-0.278101953705123
-0.498873636040226
-0.216027114080693
-1.46215697229417
0.0555957466466081
0.13042008050497
-0.442146618900247
0.453896162399515
0.684472078966552
0.223056329290995
-1.25035125530634
-0.722109249836617
0.146555046423482
0.465104927335144
0.463794065013481
-1.26217462236779
1.75843412354863
0.527429642924659
0.5002446679654
-0.895054941145242
-0.550878950593018
0.814737998518368
-0.918844586707978
-0.602906765095821
-1.61040123430789
1.27435873843037
-0.0160222637759501
0.18489455149395
0.335525429126654
0.738308329061006
-0.481663905464974
0.0356188433596571
-0.55958129191224
-0.260346195471493
1.69095746004127
-0.449889819969379
0.813137293024847
0.242965857857309
-0.068230939251603
1.30378253624349
-2.11523755472399
-0.213034627640483
-1.03137590670267
-0.0121111773349296
-3.45124993235496
0.197171988883823
-0.446852381368934
-0.976766626919332
-0.116460509960486
-0.894239453698081
-0.916959023627082
1.50230769911882
-2.3289354448631
0.0233765305616023
-1.98433865443047
0.361546648164846
0.585577332716567
0.216474865966912
-1.30322601361328
-0.276219135605903
1.14404966105822
-1.32683288204679
-0.531481195739144
1.56639375277854
0.311407151842636
0.465821723872274
0.936739987373405
0.258425839985959
0.957663590067182
0.00383122435429596
-0.587278422945134
1.88911257573475
-0.577771119172887
0.0371058108485931
3.56103642869417
0.3436357172424
0.00973075416103191
0.613785446792562
-1.1411500759323
1.70197311419534
1.07329433881915
0.476844759599422
1.63283852397477
0.37654950051095
-0.482498885817603
-0.703628956857817
-0.666234384901516
0.555405962244823
-1.0517826795313
0.272946109967834
0.108300801406946
0.0590744506405967
1.67969686413844
1.5999227875912
1.0770596331549
-0.747034703282351
0.676158725594376
-0.110949420136192
1.81824369531996
-0.850024181895271
0.5409096006962
-1.72675355860682
-1.63997281303393
2.10449480836218
1.7558504598164
-0.777209725347664
0.509797267878902
2.1465477885207
0.894454545933591
0.528208641671005
-1.3278248602005
1.23359948232498
-0.228352119071867
-0.813717296296772
0.542141786292578
-1.47234284204512
-0.667268583987967
0.739282584515194
-0.840842999096018
0.160577956637871
2.4136138111633
-0.359004421716041
-0.562316444396182
-0.259510858203252
-0.174959487539273
-0.854155780993365
0.762080693679302
0.0579474148452831
-0.0841038675514477
0.103845868653727
0.329792433210483
-0.240850636314011
0.241003472251344
0.123314724919674
0.190876772657492
0.154591264680033
-0.432379501716782
-0.838462551439931
-0.271043599944496
-1.25432900394968
-1.98416574645773
0.23538583045605
-0.171134448274025
-1.86088603460629
-3.16947507788442
0.538516816438042
-1.27062832787972
-0.355941692182505
-2.78481810928548
-1.04938705514905
-1.69369486810362
-0.447347926524788
-0.724052323034178
-0.299728206264725
-0.489614631460868
-1.45682858737609
0.905124432236935
-0.697583150272594
-0.986913689102569
-0.847899517621324
0.712199655985858
0.628762461534276
0.786495525644495
0.678143497884035
-0.569316245732715
-0.150330229388918
1.48466701548611
-0.208065761707988
-0.491488249359578
-1.13168498624867
-0.669937672920735
-0.673270338643464
0.148656635028029
0.142369528161836
-0.760255290587992
-0.524199854252811
0.334196725704301
-1.68958328194082
0.996684808116303
-2.39173361547955
0.165488966770741
1.44767379216076
0.308027319996303
-1.04518130633266
1.40899997468565
0.216648789231929
0.238856058073923
-3.17168597320328
1.03275207869202
-0.0518065085822461
-0.105804581528501
-0.0744769528127625
2.96877819191056
0.244034508348558
-3.11281774542089
-1.42274182666123
-0.171126443218326
-0.289689843165035
-2.91405548905262
0.610252160229611
-0.334143216795656
-0.169919299599596
-2.0740032117033
-0.400034915724155
-0.740050730992737
0.312608381793886
-0.145838722535049
-0.179875796492673
-1.00743982548409
-0.584125575050232
0.749689290424041
-1.0267087437425
-0.941835079838868
-1.70756027594553
-0.273535917092829
1.19309672072169
-0.975532987070065
-0.722648386589686
-0.116309641682329
0.373416519578628
-0.654805586828181
-1.70576453930668
-0.264392132304021
-0.216712531614822
-0.401823074664
0.567209799391345
0.540581254101249
-0.52192966284996
-1.04853437874708
1.51585205691978
0.14342084602672
-0.60159747859132
0.744365872892101
0.510855992778756
0.971144663147931
0.228821674475792
-0.564188846990489
7.72624326546021
0.507843795039696
0.538565650463743
-1.92587130485439
1.75222827003213
-2.34670725617892
-0.222147860976507
3.40449620489002
-1.39097458687729
-0.0355623193237743
-0.680963447558879
0.123545139145063
-0.112844913630085
0.355817537285691
2.98505899306543
1.95895890358572
0.222525457430936
-1.53725425517154
-0.851528055391815
0.845574753443477
-2.56053812406145
-0.133051003950776
-2.32813525145667
-0.135621491639693
2.03398736489957
-0.437597721852174
0.981730659574267
0.733617966134895
-1.63986492842998
-2.25700318465557
0.63831999460801
-0.23148142950863
-0.37482960331179
1.35439971620746
0.798357308286384
-0.919615935456908
0.483313822572582
-0.0901818146949443
0.704209448968318
-0.828207583520147
-0.775017325835429
-0.140494048699535
-0.60401983831107
0.147056088075687
0.551784466343185
0.398157565005912
-0.23446671080846
-1.39134757259616
-0.727407856347706
-0.0552552306701546
1.02697592143747
0.559159652810314
1.16583089515018
1.89668925979361
-0.699938143636355
1.07368194588854
-1.19069514942318
-0.181200146827319
3.03009322442878
0.498462025792281
-0.37999396527925
0.867240021678976
-2.20837770838329
-0.79806701143986
-0.771567452997573
1.57467120848381
-1.77166644696519
0.916249292764072
-0.282745624236585
-0.14072616350042
1.54916779382586
-0.847002192329662
0.501504968925607
0.188299681189285
-0.303228984250253
1.29057541134405
1.66161720376314
-0.522379554687737
0.0929713556538996
0.429521764971198
0.356949413815598
-0.57705753273045
-0.229012269133423
-0.621262481182833
-0.710153331798729
-0.249578173711573
1.35153017479722
-1.01259123621147
-0.219613472837999
-0.698938861306011
0.689169361120019
-0.185984971763676
0.251858557558045
-0.105240577435913
1.67407730065779
0.492309775820137
-1.58702948625653
1.73815607036815
-0.0124805677650967
-1.47447962249674
0.79919383599111
-0.551749886206452
-0.244070215252147
1.1594654926651
-0.662652928662629
0.797641507466643
-0.524250083733726
0.00969717347083045
-1.11756976951092
-0.0668180182105824
-0.740824377249899
2.38735161070102
-2.77996100145823
0.105686206919163
-1.60468897715596
1.88883087278131
-2.01442829347015
-2.41209065615842
-2.51178012055106
0.612342016394025
1.05213514248418
0.00391267690427384
3.2589436439077
1.1224195281713
3.36548591700804
0.0866751161357219
1.19133158264555
-0.26394257451472
1.2104813476611
2.27989191111151
0.376261172211154
0.285821655903446
0.139465071493305
-1.67075563363991
-0.663687379688232
-0.966688600620498
-0.354077650476818
0.513656979558366
0.277406510708497
0.526695243858233
-0.359362507411499
-0.347427924192138
0.155440121910242
-0.438135591567696
-0.563949672841658
-0.393489324469442
1.66189951686855
0.183146108765482
0.019010042487262
0.812784064396281
1.18820751126141
0.405490226883845
0.498285810050859
-1.46808936201032
2.19973698384001
-3.11337361442534
2.31457617966933
0.600080232845363
-0.362223431511852
-0.48442220488262
1.80728836807844
-4.43033294022766
1.69509193669827
-0.179877288896315
0.577583823168741
0.431511300790779
0.348614843589816
0.615591683667243
1.29230934589012
0.928375943043014
-1.22474990459307
0.259684736355436
-1.44726371357753
-0.936090075789138
0.524381535020166
0.477996329155073
0.0222611390846098
0.601216061233904
-0.735067390960526
-0.17052686446961
-0.130356409451213
0.227125280391616
-0.108680666194114
1.80870742028844
-0.412006974873872
0.395211814764264
0.744945362489533
3.13524973073796
-0.169190746535405
-0.651508195342689
-0.464470117161391
0.865040965137061
-0.393862762243025
-1.11365771977445
0.663857603377574
-0.426115652029964
1.61726401535062
-2.09698679055328
0.355978386641799
-0.157452758512608
